svm_type svdd
kernel_type rbf
gamma 0.027027
nr_class 2
total_sv 171
rho 0.438452
SV
0.005865102639296188 1:0.0824176 2:0.4 4:0.432519 5:0.0618102 6:0.78184 7:0.204545 8:0.554672 9:0.5 11:0.116466 12:0.750802 13:0.416667 14:0.572476 15:0.545455 17:0.589474 18:0.385246 19:0.74613 20:0.12 21:0.533981 22:0.752577 24:0.284746 25:0.214286 26:0.81 27:0.04 28:0.506329 30:0.657718 31:0.955 33:0.72314 35:0.809378 36:0.886294 37:0.996 
0.005865102639296188 1:0.164835 2:0.333333 4:0.470776 5:0.11479 6:0.816038 7:0.295455 8:0.77336 9:0.333333 11:0.13253 12:0.806417 13:0.583333 14:0.7557 15:0.272727 17:0.997895 18:0.393443 19:0.817337 20:0.16 21:0.725381 22:0.773196 24:0.308475 25:0.173469 26:0.941 28:0.655696 30:0.678971 31:0.948 33:0.834711 35:0.810398 36:0.935025 37:1 
0.005865102639296188 1:0.274725 2:0.266667 4:0.561105 5:0.0838852 6:0.824292 7:0.154545 8:0.378131 9:0.333333 11:0.108434 12:0.77754 13:0.340909 14:0.358306 15:0.363636 17:0.572632 18:0.377049 19:0.80805 20:0.08 21:0.459639 22:0.783505 24:0.433898 25:0.214286 26:0.81 27:0.1 28:0.477975 30:0.651007 31:0.956 33:0.546488 35:0.772681 36:0.900508 37:0.985 
0.005865102639296188 1:0.0824176 2:0.533333 3:0.552511 4:0.527099 5:0.0728477 6:0.764151 7:0.181818 8:0.554672 9:0.5 11:0.124498 12:0.616043 13:0.340909 14:0.531759 15:0.454545 17:0.783158 18:0.360656 19:0.703818 20:0.08 21:0.600555 22:0.783505 23:0.404255 24:0.366102 25:0.22449 26:0.659 27:0.04 28:0.536709 30:0.701342 31:0.956 33:0.733471 34:0.949485 35:0.797146 36:0.888325 37:0.995 
0.005865102639296188 1:0.164835 2:0.4 3:0.461187 4:0.395324 5:0.0838852 6:0.811321 7:0.204545 8:0.369384 9:0.416667 11:0.136546 12:0.706952 13:0.643939 14:0.42671 15:0.363636 16:0.526316 17:0.968421 18:0.409836 19:0.784314 20:0.12 21:0.466852 22:0.773196 23:0.425532 24:0.338983 25:0.285714 26:0.821 28:0.446582 30:0.667785 31:0.965 32:0.915523 33:0.808884 34:0.928866 35:0.745158 36:0.861929 37:1 
0.005865102639296188 1:0.32967 2:0.4 4:0.58661 5:0.16777 6:0.755896 7:0.227273 8:0.353082 9:0.416667 11:0.208835 12:0.721925 13:0.492424 14:0.364007 15:0.454545 16:0.673684 17:0.791579 18:0.5 19:0.744066 20:0.16 21:0.439112 22:0.773196 23:0.446809 24:0.257627 25:0.265306 26:0.846 27:0.1 28:0.431139 30:0.692394 31:0.938 32:0.940866 33:0.82438 35:0.878695 36:0.914721 37:0.99 
0.005865102639296188 1:0.274725 2:0.333333 3:0.490868 4:0.51966 5:0.247241 6:0.479953 7:0.272727 8:0.357058 9:0.25 11:0.192771 12:0.576471 13:0.606061 14:0.343241 15:0.272727 16:0.635088 17:0.736842 18:0.368852 19:0.733746 20:0.16 21:0.41914 22:0.773196 23:0.361702 24:0.549153 25:0.183673 26:0.667 28:0.406582 30:0.787472 31:0.956 32:0.956705 33:0.554752 34:0.949485 35:0.681957 36:0.960406 37:1 
0.005865102639296188 2:0.6 3:0.465753 4:0.353879 5:0.0706402 6:0.799528 7:0.136364 8:0.666004 9:0.416667 10:0.470468 11:0.0441767 12:0.795722 13:0.189394 14:0.743485 15:0.454545 16:0.477193 17:0.684211 18:0.319672 19:0.820433 20:0.16 21:0.692094 22:0.783505 23:0.680851 24:0.518644 25:1 26:0.878 28:0.64557 29:0.519595 30:0.559284 31:0.84 32:0.807814 33:0.546488 34:0.869072 35:0.551478 36:0.443655 37:1 
0.005865102639296188 1:0.0659341 2:0.133333 3:0.570776 4:0.475027 5:0.156733 6:0.720519 7:0.318182 8:0.325249 9:0.0833333 10:0.560081 11:0.104418 12:0.613904 13:0.492424 14:0.32044 15:0.0909091 16:0.484211 17:0.566316 18:0.368852 19:0.75645 20:0.2 21:0.38086 22:0.752577 23:0.297872 24:0.0305085 25:0.204082 26:0.825 28:0.354937 29:0.629583 30:0.652125 31:0.923 32:0.949314 33:1 34:0.973196 35:1 36:0.935025 37:1 
0.005865102639296188 1:0.0659341 2:0.4 3:0.63242 4:0.495218 5:0.15011 6:0.747642 7:0.181818 8:0.334394 9:0.333333 11:0.176707 12:0.698396 13:0.454545 14:0.460912 15:0.363636 16:0.582456 17:0.882105 18:0.713115 19:0.830753 20:0.52 21:0.438003 22:0.773196 23:0.510638 24:0.420339 25:0.265306 26:0.827 27:0.06 28:0.406582 30:0.442953 31:0.783 32:0.902851 33:0.727273 34:0.941237 35:0.748216 36:0.907614 37:0.994 
0.005865102639296188 1:0.0659341 2:0.266667 3:0.5 4:0.473964 5:0.12362 6:0.722877 7:0.25 8:0.351889 9:0.333333 10:0.541752 11:0.128514 12:0.748663 13:0.378788 14:0.379072 15:0.272727 16:0.603509 17:0.726316 18:0.418033 19:0.869969 20:0.16 21:0.439667 22:0.773196 23:0.893617 24:0.59322 25:0.540816 26:0.842 27:0.04 28:0.450633 29:0.446271 30:0.643177 31:0.92 32:0.79831 33:0.509298 34:0.83299 35:0.619776 36:0.772589 37:0.996 
0.005865102639296188 1:0.412088 2:0.466667 4:0.387885 5:0.112583 6:0.73467 7:0.159091 8:0.248111 9:0.5 11:0.0722892 12:0.697326 13:0.356061 14:0.271173 15:0.454545 17:0.675789 18:0.377049 19:0.762642 20:0.2 21:0.360888 22:0.773196 24:0.254237 25:0.204082 26:0.75 27:0.1 28:0.348608 30:0.559284 31:0.894 33:0.791322 35:0.810398 36:0.919797 37:0.986 
0.005865102639296188 1:0.0549451 2:0.6 3:0.468037 4:0.522848 5:0.0905077 6:0.834906 7:0.181818 8:0.293837 9:0.666667 11:0.0883534 12:0.770053 13:0.416667 14:0.315554 15:0.545455 16:0.761404 17:0.911579 18:0.54918 19:0.816305 20:0.12 21:0.371151 22:0.793814 23:0.680851 24:0.386441 25:0.377551 26:0.838 28:0.322785 30:0.369128 31:0.945 32:0.900739 33:0.761364 34:0.870103 35:0.782875 36:0.819289 37:1 
0.005865102639296188 1:0.0384615 2:0.666667 3:0.531963 4:0.537726 5:0.103753 6:0.786557 7:0.304545 8:0.388469 9:0.833333 10:0.443992 11:0.100402 12:0.705882 13:0.795455 14:0.36645 15:0.545455 16:0.659649 17:0.747368 18:0.360656 19:0.844169 20:0.08 21:0.396949 22:0.773196 23:1 24:0.39322 25:0.602041 26:0.814 27:0.1 28:0.375443 29:0.174463 30:0.654362 31:0.986 32:0.791975 33:0.695248 34:0.82268 35:0.785933 36:0.721827 37:0.993 
0.005865102639296188 1:0.0494505 2:0.2 4:0.412327 5:0.0662252 6:0.902123 7:0.159091 8:0.16501 9:0.25 11:0.0662651 12:0.805348 13:0.30303 14:0.177117 15:0.363636 16:0.575439 17:0.652632 18:0.418033 19:0.850361 20:0.08 21:0.312621 22:0.773196 23:0.468085 24:0.301695 25:0.336735 26:0.909 27:0.1 28:0.322532 30:0.477629 31:0.963 32:0.914467 33:0.73657 35:0.785933 36:0.818274 37:0.986 
0.005865102639296188 1:0.0549451 2:0.466667 4:0.55898 5:0.10596 6:0.836085 7:0.25 8:0.281113 9:0.5 11:0.106426 12:0.765775 13:0.454545 14:0.304153 15:0.454545 16:0.614035 17:0.804211 18:0.442623 19:0.841073 20:0.08 21:0.418863 22:0.773196 23:0.723404 24:0.433898 25:0.408163 26:0.842 27:0.04 28:0.339747 30:0.564877 31:0.967 32:0.851109 33:0.686983 35:0.771662 36:0.818274 37:0.996 
0.005865102639296188 1:0.0549451 2:0.333333 4:0.754516 5:0.282561 6:0.65684 7:0.295455 8:0.66998 9:0.416667 11:0.144578 12:0.668449 13:0.454545 14:0.70684 15:0.454545 16:0.673684 17:0.947368 18:0.491803 19:0.688338 20:0.2 21:0.622746 22:0.783505 24:1 25:0.897959 26:0.761 27:0.5 28:0.605063 30:0.59396 31:0.925 33:0.355372 35:0.59633 36:0.771574 37:0.962 
0.005865102639296188 1:0.0659341 2:0.533333 3:0.46347 4:0.498406 5:0.169978 6:0.768868 7:0.236364 8:0.307753 9:0.666667 11:0.192771 12:0.703743 13:0.643939 14:0.397394 15:0.545455 16:0.54386 17:0.76 18:0.409836 19:0.825593 20:0.16 21:0.452982 22:0.773196 23:0.489362 24:0.328814 25:0.387755 26:0.884 27:0.1 28:0.43443 30:0.750559 31:0.953 32:0.899683 33:0.755165 34:0.914433 35:0.808359 36:0.869036 37:0.99 
0.005865102639296188 1:0.0659341 2:0.533333 3:0.53653 5:0.130243 6:0.889151 7:0.318182 8:0.324851 9:0.583333 10:0.472505 11:0.140562 12:0.832086 13:0.606061 14:0.333062 15:0.454545 16:0.578947 17:0.726316 18:0.377049 19:0.829721 20:0.12 21:0.386408 22:0.783505 23:0.531915 24:0.423729 25:0.255102 26:0.906 28:0.365823 29:0.36536 30:0.710291 31:0.969 32:0.895459 33:0.659091 34:0.921649 36:0.903553 37:1 
0.005865102639296188 1:0.192308 2:0.6 4:0.556854 5:0.12362 6:0.79717 7:0.263636 8:0.350696 9:0.666667 10:0.468432 11:0.136546 12:0.706952 13:0.568182 14:0.324919 15:0.545455 16:0.540351 17:0.631579 18:0.393443 19:0.795666 20:0.2 21:0.398336 22:0.762887 23:0.617021 24:0.257627 25:0.255102 26:0.84 28:0.36 29:0.417193 30:0.685682 31:0.933 32:0.857445 33:0.771694 35:0.87156 36:0.900508 37:1 
0.005865102639296188 1:0.0659341 2:0.266667 4:0.462274 5:0.0949227 6:0.806604 7:0.204545 8:0.280716 9:0.333333 11:0.15261 12:0.745455 13:0.530303 14:0.30741 15:0.363636 17:0.858947 18:0.491803 19:0.75645 20:0.24 21:0.401387 22:0.783505 24:0.345763 25:0.234694 26:0.841 27:0.04 28:0.342785 30:0.60962 31:0.914 33:0.774793 35:0.780836 36:0.896447 37:0.996 
0.005865102639296188 1:0.0549451 2:0.6 4:0.548353 5:0.0596026 6:0.891509 7:0.159091 8:0.331213 9:0.666667 11:0.120482 12:0.792513 13:0.416667 14:0.338355 15:0.545455 17:0.686316 18:0.385246 19:0.965944 20:0.24 21:0.368932 22:0.783505 24:0.383051 25:0.377551 26:0.955 27:0.04 28:0.356709 30:0.665548 31:0.9 33:0.674587 35:0.796126 36:0.785787 37:0.994 
0.005865102639296188 1:0.164835 2:0.4 4:0.399575 5:0.0927152 6:0.807783 7:0.227273 8:0.518887 9:0.416667 11:0.164659 12:0.66631 13:0.568182 14:0.68241 15:0.363636 17:0.686316 18:0.336066 19:0.70485 20:0.16 21:0.603329 22:0.783505 24:0.223729 25:0.153061 26:0.933 28:0.607595 30:0.786353 31:0.947 33:0.82438 35:0.839959 36:0.937056 37:1 
0.005865102639296188 1:0.0192308 2:0.266667 3:0.273973 4:0.365569 5:0.0286976 6:0.641509 7:0.204545 8:0.110537 9:0.166667 11:0.0763052 12:0.591444 13:0.227273 14:0.105049 15:0.272727 17:0.545263 18:0.286885 19:0.501548 20:0.08 21:0.2319 22:0.773196 23:0.340426 24:0.328814 25:0.173469 26:0.518 27:0.06 28:0.228608 30:0.702461 31:0.933 33:0.645661 34:0.893814 35:0.731906 36:0.888325 37:0.994 
0.005865102639296188 1:0.10989 2:0.4 4:0.650372 5:0.128035 6:0.834906 7:0.363636 8:0.329622 9:0.5 11:0.156627 12:0.702674 13:0.606061 14:0.321254 15:0.454545 16:0.554386 17:0.545263 18:0.409836 19:0.825593 20:0.16 21:0.376699 22:0.773196 23:0.808511 24:0.359322 25:0.346939 26:0.867 27:0.04 28:0.313671 30:0.701342 31:0.956 32:0.801478 33:0.610537 35:0.843017 36:0.862944 37:0.998 
0.005865102639296188 1:0.192308 2:0.4 3:0.504566 4:0.556854 5:0.0860927 6:0.852594 7:0.227273 8:0.328032 9:0.5 11:0.140562 12:0.832086 13:0.340909 14:0.310668 15:0.454545 16:0.449123 17:0.629474 18:0.336066 19:0.930857 20:0.08 21:0.394175 22:0.773196 23:0.617021 24:0.461017 25:0.397959 26:0.837 27:0.04 28:0.380506 30:0.755034 31:0.956 32:0.816262 33:0.563017 34:0.895876 35:0.754332 36:0.805076 37:0.996 
0.005865102639296188 1:0.934066 2:0.333333 4:0.55898 5:0.200883 6:0.751179 7:0.340909 8:0.606362 9:0.25 10:0.496945 11:0.232932 12:0.671658 13:0.681818 14:0.613192 15:0.363636 16:0.677193 17:0.947368 18:0.54918 19:0.723426 20:0.52 21:0.656033 22:0.773196 23:0.595745 24:0.311864 25:0.367347 26:0.806 27:0.02 28:0.653165 29:0.264223 30:0.682327 31:0.856 32:0.902851 33:0.822314 35:0.840979 36:0.890355 37:0.999 
0.005865102639296188 1:0.192308 2:0.2 3:0.561644 4:0.619554 5:0.434879 6:0.533019 7:0.331818 8:0.119682 9:0.166667 10:0.464358 11:0.325301 12:0.451337 13:0.568182 14:0.148616 15:0.181818 16:0.298246 17:0.496842 18:0.311475 19:0.705882 20:0.2 21:0.278225 22:0.752577 23:0.446809 24:0.254237 25:0.255102 26:0.72 27:0.1 28:0.294684 29:0.792668 30:0.923937 31:0.94 32:0.795143 33:0.704545 34:0.943299 35:0.88787 36:0.964467 37:0.993 
0.005865102639296188 1:0.549451 2:0.6 3:0.461187 4:0.505845 5:0.209713 6:0.581368 7:0.168182 8:0.366203 9:0.583333 10:0.419552 11:0.140562 12:0.543316 13:0.265152 14:0.352199 15:0.545455 16:0.652632 17:0.829474 18:0.442623 19:0.745098 20:0.52 21:0.368377 22:0.773196 23:0.574468 24:0.254237 25:0.22449 26:0.909 27:0.1 28:0.326835 29:0.12263 30:0.638702 31:0.629 32:0.902851 33:0.836777 34:0.892784 35:0.858308 36:0.941117 37:0.986 
0.005865102639296188 1:0.0961538 2:0.4 4:0.361318 5:0.0640177 6:0.841981 7:0.104545 8:0.302982 9:0.416667 11:0.116466 12:0.694118 13:0.340909 14:0.270765 15:0.454545 17:0.774737 18:0.45082 19:0.750258 20:0.24 21:0.40638 22:0.783505 28:0.365823 30:0.579418 31:0.867 
0.005865102639296188 1:0.0824176 2:0.133333 3:0.721461 4:0.566419 5:0.169978 6:0.642689 7:0.25 8:0.256859 9:0.0833333 10:0.716904 11:0.232932 12:0.497326 13:0.492424 14:0.300896 15:0.181818 16:0.666667 17:0.76 18:0.655738 19:0.529412 20:0.6 21:0.397503 22:0.773196 23:0.829787 24:0.508475 25:0.55102 26:0.741 27:0.2 28:0.381266 29:0.581542 30:0.598434 31:0.769 32:0.839493 33:0.603306 34:0.904124 35:0.732926 36:0.807107 37:0.982 
0.005865102639296188 1:0.10989 2:0.533333 3:0.285388 4:0.344315 5:0.278146 6:0.423349 7:0.227273 8:0.150298 9:0.333333 10:0.604888 11:0.694779 12:0.350802 13:0.984848 14:0.151466 15:0.545455 16:0.294737 17:0.429474 18:0.508197 19:0.54902 20:0.24 21:0.28294 22:0.814433 23:0.595745 24:0.433898 25:0.142857 26:0.743 27:0.04 28:0.25519 29:0.906448 30:0.946309 31:0.954 32:0.704329 33:0.385331 34:0.8 35:0.616718 36:0.975635 37:0.996 
0.005865102639296188 1:0.0769231 2:0.466667 3:0.605023 4:0.350691 5:0.498896 6:0.323113 7:0.340909 8:0.457654 9:0.5 10:0.492872 11:0.570281 12:0.320856 13:0.94697 14:0.465798 15:0.545455 16:0.466667 17:0.433684 18:0.491803 19:0.498452 20:0.24 21:0.489598 22:0.804124 23:0.510638 24:0.237288 25:0.112245 26:0.618 27:0.04 28:0.455696 29:0.5689 30:0.9217 31:0.952 32:0.865892 33:0.681818 34:0.937113 35:0.803262 36:0.994924 37:0.997 
0.005865102639296188 1:0.0659341 2:0.4 3:0.454338 4:0.42933 5:0.134658 6:0.629717 7:0.227273 8:0.236581 9:0.416667 10:0.847251 11:0.433735 12:0.464171 13:0.833333 14:0.265472 15:0.363636 16:0.501754 17:0.629474 18:0.467213 19:0.633643 20:0.16 21:0.383079 22:0.783505 23:0.531915 24:0.288136 25:0.193878 26:0.653 28:0.355443 29:0.82933 30:0.883669 31:0.964 32:0.871172 33:0.739669 34:0.901031 35:0.805301 36:0.93198 37:1 
0.005865102639296188 1:0.164835 2:0.333333 3:0.315068 4:0.275239 5:0.381898 6:0.268868 7:0.181818 8:0.116103 9:0.25 10:0.325866 11:0.473896 12:0.285561 13:0.568182 14:0.132329 15:0.272727 16:0.354386 17:0.370526 18:0.516393 19:0.491228 20:0.2 21:0.28516 22:0.783505 23:0.468085 24:0.2 25:0.163265 26:0.688 28:0.302278 29:0.466498 30:0.876957 31:0.933 32:0.825766 33:0.686983 34:0.86701 35:0.786952 36:0.979695 37:1 
0.005865102639296188 1:0.0549451 2:0.2 3:0.440639 4:0.363443 5:0.165563 6:0.599057 7:0.136364 8:0.107356 9:0.25 10:0.468432 11:0.313253 12:0.473797 13:0.454545 14:0.119707 15:0.272727 16:0.463158 17:0.469474 18:0.713115 19:0.522188 20:0.16 21:0.251595 22:0.752577 25:0.22449 26:0.691 28:0.308354 29:0.538559 30:0.659955 31:0.933 36:0.928934 37:1 
0.005865102639296188 1:0.0549451 2:0.266667 3:0.461187 4:0.45271 5:0.152318 6:0.950472 7:0.25 8:0.634195 9:0.333333 10:0.663951 11:0.293173 12:0.603209 13:0.530303 14:0.596906 15:0.363636 16:0.498246 17:0.589474 18:0.598361 19:0.679051 20:0.24 21:0.505964 22:0.793814 23:0.702128 24:0.311864 25:0.234694 26:0.73 27:0.04 28:0.458987 29:0.713021 30:0.714765 31:0.921 32:0.810982 33:0.693182 34:0.862887 35:0.799185 36:0.920812 37:0.996 
0.005865102639296188 1:0.0549451 2:0.2 3:0.728311 4:0.494155 5:0.11479 6:0.75 7:0.25 8:0.235785 9:0.25 10:0.741344 11:0.277108 12:0.540107 13:0.568182 14:0.256515 15:0.363636 16:0.501754 17:0.549474 18:0.409836 19:0.722394 20:0.16 21:0.358669 22:0.793814 23:0.382979 24:0.352542 25:0.112245 26:0.873 27:0.04 28:0.340506 29:0.767383 30:0.829978 31:0.947 32:0.922914 33:0.621901 34:0.973196 35:0.79103 36:0.963452 37:0.996 
0.005865102639296188 1:0.43956 2:0.466667 3:0.438356 4:0.460149 5:0.209713 6:0.675708 7:0.318182 8:0.270378 9:0.5 10:0.547862 11:0.325301 12:0.540107 13:0.871212 14:0.25285 15:0.545455 16:0.484211 17:0.618947 18:0.442623 19:0.706914 20:0.12 21:0.358669 22:0.804124 23:0.319149 24:0.20339 25:0.122449 26:0.917 27:0.04 28:0.360253 29:0.615676 30:0.841163 31:0.978 32:0.940866 33:0.822314 34:0.950515 35:0.877676 36:0.974619 37:0.997 
0.005865102639296188 1:0.164835 2:0.4 3:0.495434 4:0.370882 5:0.0684327 6:0.823113 7:0.159091 8:0.293837 9:0.416667 10:0.354379 11:0.0963855 12:0.699465 13:0.30303 14:0.314739 15:0.454545 16:0.34386 17:0.549474 18:0.319672 19:0.793602 20:0.08 21:0.353675 22:0.814433 24:0.311864 25:0.204082 26:0.8 28:0.311392 29:0.552465 30:0.699105 31:0.95 33:0.669421 35:0.750255 36:0.897462 37:1 
0.005865102639296188 1:0.384615 2:0.333333 3:0.586758 4:0.70882 5:1 6:0.371462 7:1 8:0.30338 9:0.416667 10:0.431772 11:0.461847 12:0.389305 13:0.94697 14:0.288274 15:0.545455 16:0.473684 17:0.442105 18:0.442623 19:0.592363 20:0.08 21:0.353121 22:0.824742 23:0.340426 24:0.189831 25:0.153061 26:0.733 28:0.348861 29:0.458913 30:0.907159 31:0.984 32:0.930306 33:0.757231 34:0.96701 35:0.933741 36:1 37:1 
0.005865102639296188 1:0.0549451 2:0.266667 3:0.650685 4:0.463337 5:0.119205 6:0.800708 7:0.272727 8:0.151093 9:0.25 10:0.594705 11:0.126506 12:0.718717 13:0.416667 14:0.177117 15:0.181818 16:0.561404 17:0.597895 18:0.327869 19:0.825593 20:0.08 21:0.292372 22:0.773196 23:0.553191 24:0.352542 25:0.418367 26:0.732 27:1 28:0.290127 29:0.571429 30:0.742729 31:0.964 32:0.8849 33:0.654959 34:0.937113 35:0.775739 36:0.824365 37:0.917 
0.005865102639296188 1:0.164835 2:0.333333 3:0.586758 4:0.624867 5:0.240618 6:0.712264 7:0.318182 8:0.269185 9:0.333333 10:0.433809 11:0.160643 12:0.64492 13:0.492424 14:0.292345 15:0.454545 16:0.610526 17:0.724211 18:0.47541 19:0.729618 20:0.32 21:0.352566 22:0.783505 23:0.553191 24:0.311864 25:0.44898 26:0.742 27:0.6 28:0.307089 29:0.231353 30:0.642058 31:0.877 32:0.898627 33:0.757231 34:0.926804 35:0.860347 36:0.879188 37:0.957 
0.005865102639296188 1:0.0659341 2:0.466667 3:0.611872 4:0.496281 5:0.125828 6:0.779481 7:0.295455 8:0.275944 9:0.5 10:0.668024 11:0.200803 12:0.671658 13:0.719697 14:0.269544 15:0.545455 16:0.533333 17:0.711579 18:0.360656 19:0.79773 20:0.08 21:0.347018 22:0.793814 23:0.617021 24:0.501695 25:0.5 26:0.803 27:0.2 28:0.337722 29:0.678887 30:0.803132 31:0.984 32:0.854277 33:0.580579 34:0.919588 35:0.696228 36:0.792893 37:0.985 
0.005865102639296188 1:0.164835 2:0.2 3:0.712329 4:0.412327 5:0.103753 6:0.728774 7:0.181818 8:0.123658 9:0.166667 10:0.429735 11:0.10241 12:0.68984 13:0.378788 14:0.124593 15:0.181818 16:0.389474 17:0.467368 18:0.352459 19:0.791538 20:0.08 21:0.258252 22:0.762887 23:0.893617 24:0.522034 25:0.704082 26:0.831 27:0.2 28:0.276456 29:0.599241 30:0.668904 31:0.96 32:0.656811 33:0.316116 34:0.891753 35:0.614679 36:0.672081 37:0.975 
0.005865102639296188 1:0.032967 2:0.6 3:0.922374 4:0.483528 5:0.373068 6:0.45283 7:0.227273 8:0.204374 9:0.416667 10:1 11:0.582329 12:0.413904 13:0.871212 14:0.230049 15:0.454545 16:1 18:0.45082 19:0.731682 20:0.16 21:0.297087 22:0.804124 23:0.425532 24:0.281356 25:0.255102 26:0.907 27:0.1 28:0.258481 29:0.530973 30:0.940716 31:0.97 32:0.982049 34:0.979381 35:0.833843 36:0.958376 37:0.99 
0.005865102639296188 1:0.0549451 2:0.533333 3:0.803653 4:0.500531 5:0.108168 6:0.771226 7:0.25 8:0.570577 9:0.5 10:0.786151 11:0.104418 12:0.693048 13:0.416667 14:0.653909 15:0.272727 16:0.694737 17:0.732632 18:0.483607 19:0.769866 20:0.2 21:0.61165 22:0.773196 23:0.510638 24:0.308475 25:0.326531 26:0.844 28:0.579747 29:0.615676 30:0.50783 31:0.918 32:0.928194 33:0.76343 34:0.960825 35:0.82263 36:0.858883 37:1 
0.005865102639296188 1:0.032967 2:0.533333 3:0.493151 4:0.562168 5:0.152318 6:0.722877 7:0.286364 8:0.184493 9:0.583333 10:0.873727 11:0.108434 12:0.700535 13:0.378788 14:0.236156 15:0.454545 16:0.491228 17:0.709474 18:0.565574 19:0.658411 20:0.6 21:0.29681 22:0.793814 23:0.489362 24:0.318644 25:0.22449 26:0.841 28:0.280253 29:0.852086 30:0.417226 31:0.7 32:0.882788 33:0.744835 34:0.921649 35:0.83792 36:0.924873 37:1 
0.005865102639296188 1:0.0384615 2:0.4 3:0.372146 4:0.497343 5:0.101545 6:0.676887 7:0.204545 8:0.322068 9:0.583333 10:0.649695 11:0.180723 12:0.629947 13:0.530303 14:0.355456 15:0.454545 16:0.512281 17:0.743158 18:0.942623 19:0.574819 20:0.08 21:0.344799 22:0.793814 23:0.297872 24:0.338983 25:0.193878 26:0.868 28:0.331392 29:0.685209 30:0.237136 31:0.971 32:0.954593 33:0.740702 34:0.942268 35:0.801223 36:0.919797 37:1 
0.005865102639296188 1:0.0659341 2:0.4 4:0.530287 5:0.152318 6:0.666274 7:0.295455 8:0.198012 9:0.416667 11:0.192771 12:0.619251 13:0.545455 14:0.223941 15:0.454545 17:0.703158 18:0.401639 19:0.800826 20:0.08 21:0.370319 22:0.783505 24:0.261017 25:0.204082 26:0.75 28:0.353165 30:0.758389 31:0.972 33:0.794421 35:0.862385 36:0.932995 37:1 
0.005865102639296188 1:0.137363 2:0.533333 3:0.787671 4:0.485654 5:0.196468 6:0.704009 7:0.340909 8:0.221471 9:0.5 11:0.236948 12:0.675936 13:0.681818 14:0.253257 15:0.545455 17:0.783158 18:0.598361 19:0.749226 20:0.8 21:0.356172 22:0.804124 23:0.404255 24:0.298305 25:0.193878 26:0.789 28:0.363797 30:0.64877 31:0.778 33:0.788223 34:0.974227 35:0.82263 36:0.948223 37:1 
0.005865102639296188 1:0.043956 2:0.333333 3:0.984018 4:0.565356 5:0.110375 6:0.774764 7:0.227273 8:0.326044 9:0.25 10:0.832994 11:0.11245 12:0.629947 13:0.454545 14:0.34487 15:0.454545 16:0.736842 17:0.757895 18:0.401639 19:0.673891 20:0.08 21:0.384743 22:0.793814 23:0.276596 24:0.447458 25:0.132653 26:0.5 28:0.383797 29:0.615676 30:0.629754 31:0.967 32:0.990496 33:0.653926 34:1 35:0.766565 36:0.952284 37:1 
0.005865102639296188 1:0.0824176 2:0.466667 3:0.207763 4:0.345377 5:0.013245 6:0.908019 7:0.159091 8:0.123658 9:0.5 10:0.221996 11:0.0120482 12:1 13:0.280303 14:0.142101 15:0.454545 16:0.284211 17:0.477895 18:0.262295 19:1 20:0.16 21:0.249098 22:0.793814 23:0.319149 24:0.250847 25:0.112245 26:1 28:0.263038 29:0.324905 30:0.541387 31:0.892 32:0.860612 33:0.696281 34:0.860825 35:0.786952 36:0.923858 37:1 
0.005865102639296188 1:0.137363 2:0.4 3:0.609589 4:0.363443 5:0.101545 6:0.688679 7:0.0909091 8:0.24334 9:0.333333 10:0.517312 11:0.060241 12:0.746524 13:0.151515 14:0.241042 15:0.454545 16:0.45614 17:0.734737 18:0.491803 19:0.688338 20:0.16 21:0.378641 22:0.793814 23:0.255319 24:0.261017 25:0.163265 26:0.875 28:0.368101 29:0.616941 30:0.337808 31:0.8 32:0.958817 33:0.804752 34:0.984536 35:0.79001 36:0.935025 
0.005865102639296188 1:0.32967 3:0.376712 4:0.33475 5:0.0662252 6:0.762972 8:0.163022 10:0.446029 11:0.0682731 12:0.725134 14:0.177932 16:0.424561 17:0.494737 18:0.352459 19:0.840041 21:0.310402 22:0.762887 23:0.234043 24:0.179661 25:0.193878 26:0.737 28:0.330633 29:0.565107 30:0.583893 32:0.959873 33:0.799587 34:0.961856 35:0.848114 36:0.901523 
0.005865102639296188 1:0.0659341 2:0.2 3:0.203196 4:0.316684 5:0.00662252 6:0.8125 7:0.0909091 8:0.160636 9:0.333333 10:0.181263 11:0.00803213 12:0.748663 13:0.174242 14:0.158388 15:0.363636 16:0.277193 17:0.526316 18:0.303279 19:0.835913 20:0.08 21:0.305964 22:0.783505 23:0.340426 24:0.142373 25:0.22449 26:0.836 27:0.06 28:0.290886 29:0.141593 30:0.428412 31:0.911 32:0.841605 33:0.859504 34:0.845361 35:0.875637 36:0.822335 37:0.988 
0.005865102639296188 1:0.0384615 2:0.4 3:0.363014 4:0.371945 5:0.0441501 6:0.817217 7:0.136364 8:0.234195 9:0.416667 10:0.391039 11:0.0481928 12:0.802139 13:0.189394 14:0.200326 15:0.363636 16:0.582456 17:0.656842 18:0.336066 19:0.780186 20:0.08 21:0.330374 22:0.793814 23:0.87234 24:0.515254 25:0.418367 26:0.793 27:0.04 28:0.339494 29:0.17067 30:0.545861 31:0.94 32:0.795143 33:0.529959 34:0.764948 35:0.576962 36:0.738071 37:0.993 
0.005865102639296188 1:0.0384615 2:0.333333 3:0.440639 4:0.316684 5:0.0110375 6:0.707547 7:0.136364 8:0.140358 9:0.416667 10:0.325866 11:0.0883534 12:0.406417 13:0.189394 14:0.184446 15:0.454545 16:0.473684 17:0.467368 20:0.12 21:0.312344 22:0.804124 23:0.340426 24:0.233898 27:0.04 28:0.303544 29:0.197219 31:0.88 32:0.930306 33:0.711777 34:0.945361 35:0.782875 37:0.993 
0.005865102639296188 1:0.824176 2:0.2 3:0.171233 4:0.141339 5:0.0353201 6:0.464623 7:0.0909091 8:0.0576541 9:0.25 10:0.258656 11:0.060241 12:0.497326 13:0.136364 14:0.0504886 15:0.272727 16:0.25614 17:0.261053 18:0.254098 19:0.698658 20:0.12 21:0.218031 22:0.752577 23:0.191489 24:0.108475 25:0.122449 26:0.8 28:0.225063 29:0.537295 30:0.715884 31:0.861 32:0.926082 33:0.766529 34:0.907216 35:0.7737 36:0.928934 37:1 
0.005865102639296188 1:0.0549451 2:0.4 3:0.810502 4:0.590861 5:0.0816777 6:0.589623 7:0.15 8:0.223857 9:0.416667 10:0.627291 11:0.0823293 12:0.550802 13:0.227273 14:0.269544 15:0.454545 16:0.42807 17:0.454737 18:0.319672 19:0.74097 20:0.08 21:0.363384 22:0.793814 23:0.893617 24:0.420339 25:0.489796 26:0.742 27:0.1 28:0.331646 29:0.76359 30:0.668904 31:0.933 32:0.692714 33:0.440083 34:0.909278 35:0.792049 36:0.750254 37:0.985 
0.005865102639296188 1:0.0549451 2:0.466667 3:0.598174 4:0.471838 5:0.236203 6:0.567217 7:0.295455 8:0.240159 9:0.5 10:0.568228 11:0.269076 12:0.462032 13:0.454545 14:0.263844 15:0.545455 16:0.564912 17:0.730526 18:0.368852 19:0.80289 20:0.16 21:0.385853 22:0.783505 23:0.659574 24:0.589831 25:0.683673 26:0.736 27:1 28:0.353924 29:0.534766 30:0.853468 31:0.942 32:0.852165 33:0.515496 34:0.909278 35:0.619776 36:0.805076 37:0.923 
0.005865102639296188 1:0.164835 2:0.4 3:0.541096 4:0.583422 5:0.139073 6:0.839623 7:0.181818 8:0.271173 9:0.5 10:0.582485 11:0.168675 12:0.717647 13:0.606061 14:0.266287 15:0.454545 16:0.617544 17:0.875789 18:0.459016 19:0.718266 20:0.16 21:0.383911 22:0.793814 23:0.829787 24:0.972881 25:0.857143 26:0.816 27:0.4 28:0.374684 29:0.486726 30:0.671141 31:0.956 32:0.821542 33:0.320248 34:0.860825 35:0.489297 36:0.653807 37:0.95 
0.005865102639296188 1:0.0549451 2:0.0666667 3:0.312785 4:0.422954 5:0.0860927 6:0.676887 7:0.181818 8:0.184493 10:0.334012 11:0.0923695 12:0.628877 13:0.325758 14:0.183225 16:0.284211 17:0.429474 18:0.254098 19:0.665635 20:0.04 21:0.299584 22:0.762887 23:0.191489 24:0.223729 25:0.102041 26:0.7 28:0.32 29:0.639697 30:0.778523 31:0.976 32:0.938754 33:0.698347 34:0.962887 35:0.850153 36:0.961421 37:1 
0.005865102639296188 1:0.247253 2:0.2 3:0.255708 4:0.36238 5:0.161148 6:0.553066 7:0.190909 8:0.538767 9:0.0833333 10:0.205703 11:0.126506 12:0.512299 13:0.227273 14:0.698697 15:0.181818 16:0.333333 17:0.528421 18:0.336066 19:0.780186 20:0.08 21:0.511789 22:0.783505 23:0.382979 24:0.386441 25:0.27551 26:0.741 28:0.683544 29:0.0745891 30:0.732662 31:0.933 32:0.856389 33:0.56405 34:0.864948 35:0.678899 36:0.908629 37:1 
0.005865102639296188 1:0.0549451 2:0.333333 3:0.342466 4:0.35813 5:0.0794702 7:0.136364 8:0.188469 9:0.333333 10:0.238289 11:0.0783133 12:0.731551 13:0.189394 14:0.197476 15:0.363636 16:0.378947 17:0.538947 18:0.254098 20:0.2 21:0.332039 22:0.804124 23:0.382979 24:0.288136 25:0.204082 26:0.76 28:0.348861 29:0.0973451 30:0.753915 31:0.8 32:0.87962 33:0.690083 34:0.907216 35:0.762487 36:0.903553 37:1 
0.005865102639296188 1:0.0549451 2:0.333333 3:0.6621 4:0.601488 5:0.267108 6:0.622642 7:0.363636 8:0.725646 9:0.333333 10:0.639511 11:0.246988 12:0.579679 13:0.606061 14:0.820847 15:0.363636 16:0.42807 17:0.64 18:0.319672 19:0.925697 20:0.08 21:0.739251 22:0.814433 23:0.382979 24:0.39322 25:0.153061 26:0.933 28:0.653165 29:0.77244 30:0.87472 31:0.981 32:0.899683 33:0.63843 34:0.96701 35:0.810398 36:0.971574 37:1 
0.005865102639296188 1:0.0659341 2:0.4 3:0.561644 4:0.68119 5:0.293598 6:0.665094 7:0.272727 8:0.384891 9:0.416667 10:0.539715 11:0.267068 12:0.62246 13:0.606061 14:0.411238 15:0.545455 16:0.463158 17:0.711579 18:0.696721 19:0.655315 20:0.68 21:0.450763 22:0.814433 23:0.659574 24:0.338983 25:0.346939 26:0.794 27:0.04 28:0.441013 29:0.63464 30:0.615213 31:0.794 32:0.807814 33:0.727273 34:0.901031 35:0.860347 36:0.923858 37:0.997 
0.005865102639296188 1:0.10989 2:0.333333 3:0.557078 4:0.645058 5:0.298013 6:0.633255 7:0.272727 8:0.574553 9:0.416667 10:0.492872 11:0.325301 12:0.57861 13:0.606061 14:0.613192 15:0.545455 16:0.487719 17:0.743158 18:0.672131 19:0.473684 20:0.72 21:0.564494 22:0.824742 23:0.382979 24:0.352542 25:0.265306 26:0.723 28:0.574684 29:0.538559 30:0.697987 31:0.775 32:0.919747 33:0.728306 34:0.954639 35:0.845056 36:0.946193 37:1 
0.005865102639296188 1:0.247253 2:0.266667 3:0.399543 4:0.442083 5:0.125828 6:0.610849 7:0.204545 8:0.297416 9:0.333333 10:0.372709 11:0.10241 12:0.609626 13:0.265152 14:0.572476 15:0.363636 16:0.368421 17:0.576842 18:0.42623 19:0.649123 20:0.32 21:0.600555 22:0.814433 23:0.382979 25:0.214286 26:0.667 27:0.1 28:0.660759 29:0.538559 30:0.574944 31:0.771 32:0.875396 34:0.924742 36:0.919797 37:0.989 
0.005865102639296188 1:0.0824176 2:0.2 3:0.436073 4:0.518597 5:0.437086 6:0.419811 7:0.286364 8:0.745527 9:0.0833333 10:0.350305 11:0.46988 12:0.442781 13:0.590909 14:0.739414 15:0.272727 16:0.357895 17:0.562105 18:0.344262 19:0.736842 20:0.08 21:0.71706 22:0.793814 23:0.468085 24:0.372881 25:0.336735 26:0.75 27:0.16 28:0.721519 29:0.514539 30:0.956376 31:0.974 32:0.827878 33:0.607438 34:0.912371 35:0.79001 36:0.949239 37:0.988 
0.005865102639296188 1:0.10989 2:0.333333 3:0.53653 4:0.652497 5:0.642384 6:0.347877 7:0.363636 8:0.347515 9:0.333333 10:0.492872 11:0.606426 12:0.340107 13:0.719697 14:0.373779 15:0.363636 16:0.329825 17:0.517895 18:1 19:0.245614 20:0.08 21:0.416921 22:0.814433 23:0.340426 24:0.305085 25:0.530612 26:0.292 28:0.411392 29:0.773704 30:0.737136 31:0.984 32:0.876452 33:0.654959 34:0.960825 35:0.869521 36:0.939086 37:1 
0.005865102639296188 1:0.0549451 2:0.333333 3:0.292237 4:0.416578 5:0.139073 6:0.699292 7:0.145455 8:0.550696 9:0.25 10:0.264766 11:0.064257 12:0.607487 13:0.30303 14:0.605049 15:0.363636 16:0.414035 17:0.572632 18:0.360656 19:0.609907 20:0.08 21:0.533981 22:0.804124 24:0.555932 25:0.5 26:0.673 27:0.1 28:0.524051 29:0.116308 30:0.559284 31:0.95 33:0.410124 35:0.593272 36:0.804061 37:0.984 
0.005865102639296188 1:0.10989 2:0.0666667 3:0.317352 4:0.392136 5:0.192053 6:0.581368 7:0.181818 8:0.109742 9:0.166667 10:0.327902 11:0.200803 12:0.480214 13:0.30303 14:0.110749 16:0.305263 17:0.416842 18:0.368852 19:0.641899 20:0.04 21:0.247712 22:0.773196 23:0.404255 24:0.39322 25:0.346939 26:0.729 27:0.04 28:0.270886 29:0.581542 30:0.796421 31:0.975 32:0.825766 33:0.427686 34:0.889691 35:0.699286 36:0.893401 37:0.995 
0.005865102639296188 1:0.10989 2:0.6 3:0.344749 5:0.174393 6:0.563679 7:0.159091 8:0.404374 9:0.583333 10:0.325866 11:0.136546 12:0.638503 13:0.227273 14:0.443404 15:0.636364 16:0.298246 18:0.344262 19:0.712074 20:0.08 21:0.453814 22:0.845361 23:0.255319 25:0.173469 26:0.776 28:0.415949 29:0.59292 30:0.739374 31:0.933 32:0.907075 34:0.949485 36:0.951269 37:1 
0.005865102639296188 1:0.0934066 2:0.2 3:0.319635 4:0.245484 5:0.275938 7:0.181818 8:0.0361829 9:0.166667 10:0.297352 11:0.216867 13:0.265152 14:0.0394951 15:0.181818 16:0.277193 17:0.305263 18:0.262295 20:0.08 21:0.207767 22:0.783505 23:0.255319 24:0.132203 25:0.112245 27:0.04 28:0.229114 29:0.580278 30:0.900447 31:0.943 32:0.895459 33:0.755165 34:0.942268 35:0.847095 36:0.983756 37:0.995 
0.005865102639296188 1:0.357143 2:0.4 3:0.326484 4:0.42508 5:0.399558 7:0.295455 8:0.602386 9:0.416667 10:0.193483 11:0.114458 13:0.30303 14:0.588762 15:0.454545 16:0.340351 17:0.494737 18:0.303279 20:0.12 21:0.578363 22:0.804124 23:0.297872 24:0.277966 25:0.122449 27:0.04 28:0.483544 30:0.752796 31:0.938 32:0.903907 33:0.672521 34:0.929897 35:0.810398 36:0.989848 37:0.997 
0.005865102639296188 1:0.247253 2:0.333333 3:0.438356 4:0.268863 5:0.0838852 7:0.227273 8:0.438569 9:0.25 10:0.509165 11:0.0823293 13:0.340909 14:0.419788 15:0.181818 16:0.378947 17:0.414737 18:0.327869 20:0.12 21:0.427184 22:0.773196 23:0.297872 24:0.162712 25:0.132653 27:0.04 28:0.436962 29:0.718078 30:0.657718 31:0.944 32:0.918691 33:0.780992 34:0.95567 35:0.825688 36:0.944162 37:0.996 
0.005865102639296188 1:0.043956 2:0.333333 3:0.283105 4:0.248672 5:0.0110375 7:0.0818182 8:0.332008 9:0.5 10:0.250509 11:0.108434 13:0.30303 14:0.381515 15:0.454545 16:0.305263 17:0.328421 18:0.311475 20:0.08 21:0.416366 22:0.814433 23:0.382979 24:0.284746 25:0.755102 27:0.4 28:0.420506 29:0.370417 30:0.732662 31:0.95 32:0.837381 33:0.477273 34:0.881443 35:0.653415 36:0.388832 37:0.889 
0.005865102639296188 1:0.274725 2:0.266667 3:0.333333 4:0.258236 5:0.0596026 6:0.675708 7:0.145455 8:0.151093 9:0.25 10:0.393075 11:0.0963855 12:0.596791 13:0.227273 14:0.152687 15:0.272727 16:0.238596 17:0.347368 18:0.352459 19:0.791538 20:0.12 21:0.280166 22:0.793814 23:0.12766 24:0.2 25:0.142857 26:0.829 28:0.277215 29:0.819216 30:0.6566 31:0.917 32:0.963041 33:0.663223 34:0.98866 35:0.771662 36:0.928934 37:1 
0.005865102639296188 1:0.137363 2:0.466667 3:0.468037 4:0.562168 5:0.169978 6:0.724057 7:0.295455 8:0.809145 9:0.5 10:0.448065 11:0.212851 12:0.647059 13:0.454545 14:0.869707 15:0.454545 16:0.389474 17:0.684211 18:0.368852 19:0.75645 20:0.12 21:0.683773 22:0.804124 23:0.234043 25:0.0918367 26:0.622 28:0.632911 29:0.62579 30:0.807606 31:0.95 32:0.951426 34:0.975258 36:0.980711 37:1 
0.005865102639296188 1:0.181319 2:0.4 3:0.267123 4:0.388948 5:0.430464 6:0.320755 7:0.190909 8:1 9:0.416667 10:0.274949 11:0.51004 12:0.345455 13:0.530303 14:1 15:0.363636 16:0.284211 17:0.381053 18:0.434426 19:0.506708 20:0.08 21:1 22:0.804124 23:0.255319 24:0.227119 25:0.122449 26:0.75 28:1 29:0.505689 30:0.927293 31:0.971 32:0.899683 33:0.650826 34:0.924742 35:0.832824 36:0.990863 37:1 
0.005865102639296188 1:0.197802 2:0.266667 3:0.3379 4:0.42508 5:0.501104 6:0.372642 7:0.318182 8:0.333598 9:0.25 10:0.478615 11:0.688755 12:0.305882 13:0.833333 14:0.32614 15:0.272727 16:0.17193 17:0.317895 18:0.491803 19:0.498452 20:0.16 21:0.325659 22:0.793814 23:0.234043 24:0.183051 25:0.0918367 26:0.8 28:0.320759 29:1 30:0.950783 31:0.968 32:0.81943 33:0.663223 34:0.954639 35:0.881753 36:0.998985 37:1 
0.005865102639296188 1:0.0879121 2:0.333333 3:0.46347 4:0.379384 5:0.12362 6:0.691038 7:0.136364 8:0.442545 9:0.25 10:0.437882 11:0.0963855 12:0.781818 13:0.378788 14:0.449104 15:0.272727 16:0.34386 17:0.355789 18:0.352459 19:0.671827 20:0.08 21:0.500693 22:0.783505 23:0.191489 24:0.247458 25:0.132653 28:0.472911 29:0.687737 30:0.6566 31:0.96 32:0.958817 33:0.586777 34:0.985567 35:0.811417 36:0.95533 37:1 
0.005865102639296188 1:0.186813 2:0.4 3:0.488584 4:1 5:0.214128 6:0.628538 7:0.295455 8:0.293837 9:0.416667 10:0.806517 11:0.208835 12:0.614973 13:0.530303 14:0.331433 15:0.454545 16:0.375439 17:0.511579 18:0.434426 19:0.700722 20:0.08 21:0.380305 22:0.814433 23:0.234043 24:0.186441 25:0.142857 26:0.743 27:0.04 28:0.33519 29:0.922882 30:0.748322 31:0.979 32:0.947202 33:0.799587 34:0.978351 35:0.960245 36:0.968528 37:0.997 
0.005865102639296188 1:0.293956 2:0.333333 3:0.474886 4:0.316684 5:0.165563 6:0.444575 7:0.181818 8:0.207157 9:0.416667 10:0.498982 11:0.172691 12:0.497326 13:0.378788 14:0.232492 15:0.454545 16:0.315789 17:0.463158 18:0.508197 19:0.499484 20:0.12 21:0.369209 22:0.814433 23:0.404255 25:0.142857 26:0.829 28:0.407848 29:0.800253 30:0.629754 31:0.94 32:0.833157 34:0.937113 36:0.960406 37:1 
0.005865102639296188 1:0.21978 2:0.2 3:1 4:0.723698 5:0.286976 6:0.669811 7:0.272727 8:0.270775 9:0.25 10:0.431772 11:0.236948 12:0.68877 13:0.454545 14:0.298046 15:0.272727 16:0.519298 17:0.736842 18:0.360656 19:0.79773 20:0.08 21:0.352566 22:0.783505 23:0.319149 24:0.40678 25:0.112245 26:0.709 28:0.331899 29:0.381795 30:0.83557 31:0.967 32:0.949314 33:0.678719 34:0.995876 35:0.839959 36:0.984772 37:1 
0.005865102639296188 1:0.021978 2:0.266667 3:0.495434 4:0.33475 5:0.320088 6:0.695755 7:0.159091 8:0.542744 9:0.166667 10:0.458248 11:0.26506 12:0.694118 13:0.30303 14:0.560261 15:0.0909091 16:0.459649 17:0.452632 18:0.27459 19:0.800826 20:0.04 21:0.583911 22:0.773196 23:0.468085 24:0.274576 25:0.285714 26:0.714 27:0.1 28:0.549367 29:0.528445 30:0.919463 31:0.975 32:0.878564 33:0.643595 34:0.926804 35:0.75739 36:0.944162 37:0.986 
0.005865102639296188 1:0.021978 2:0.266667 3:0.474886 4:0.590861 5:0.110375 6:0.617925 7:0.181818 8:0.646123 9:0.166667 10:0.496945 11:0.0361446 12:0.708021 13:0.189394 14:0.556189 15:0.0909091 16:0.333333 17:0.431579 18:0.29918 19:0.77709 20:0.04 21:0.550624 22:0.783505 23:0.382979 24:0.254237 25:0.346939 26:0.718 28:0.526582 29:0.77244 30:0.567114 31:0.96 32:0.856389 33:0.654959 34:0.941237 35:0.881753 36:0.850761 37:1 
0.005865102639296188 1:0.0164835 2:0.6 3:0.146119 4:0.171095 5:0.0684327 6:0.479953 7:0.0909091 8:0.252485 9:0.583333 10:0.120163 11:0.0341365 12:0.483422 13:0.0833333 14:0.244707 15:0.545455 16:0.154386 17:0.24 18:0.258197 19:0.655315 20:0.04 21:0.0574202 22:0.835052 23:0.170213 24:0.105085 25:0.142857 26:0.8 28:0.35443 29:0.321113 30:0.635347 31:0.909 32:0.86378 33:0.752066 34:0.902062 35:0.82263 36:0.932995 37:1 
0.005865102639296188 1:0.0192308 2:0.533333 3:0.150685 4:0.16153 5:0.280353 6:0.239387 7:0.0727273 8:0.273559 9:0.666667 10:0.175153 11:0.301205 12:0.212834 13:0.189394 14:0.272394 15:0.636364 16:0.17193 17:0.24 18:0.327869 19:0.477812 20:0.08 21:0.366713 22:0.824742 23:0.234043 24:0.0813559 25:0.122449 26:0.767 28:0.362785 29:0.543616 30:0.901566 31:0.92 32:0.81943 33:0.815083 34:0.858763 35:0.858308 36:0.981726 37:1 
0.005865102639296188 1:0.137363 2:0.333333 3:0.109589 4:0.165781 5:0.145695 6:0.301887 7:0.0636364 8:0.272366 9:0.5 10:0.12831 11:0.154618 12:0.265241 13:0.143939 14:0.280537 15:0.454545 16:0.129825 17:0.235789 18:0.344262 19:0.491228 20:0.08 21:0.354508 22:0.824742 23:0.106383 24:0.20339 25:0.122449 26:0.833 28:0.356203 29:0.522124 30:0.765101 31:0.895 32:0.913411 33:0.479339 34:0.923711 35:0.626911 36:0.964467 37:1 
0.005865102639296188 1:0.10989 2:0.6 3:0.157534 4:0.1339 5:0.0309051 6:0.461085 7:0.0636364 8:0.0664016 9:0.666667 10:0.305499 11:0.0682731 12:0.416043 13:0.143939 14:0.0765472 15:0.818182 16:0.185965 17:0.210526 18:0.254098 19:0.616099 20:0.04 21:0.231623 22:0.824742 23:0.170213 24:0.176271 25:0.0918367 26:0.889 28:0.228354 29:0.817952 30:0.733781 31:0.947 32:0.896515 33:0.495868 34:0.91134 35:0.598369 36:0.949239 37:1 
0.005865102639296188 1:0.0659341 2:0.4 3:0.159817 4:0.199787 5:0.00220751 6:0.568396 7:0.0590909 8:0.125646 9:0.5 10:0.254582 11:0.0823293 12:0.440642 13:0.212121 14:0.14658 15:0.545455 16:0.154386 17:0.212632 18:0.221311 19:0.630547 20:0.08 21:0.271567 22:0.824742 23:0.255319 24:0.179661 25:0.163265 26:0.625 28:0.267342 29:0.819216 30:0.807606 31:0.945 32:0.767687 33:0.490702 34:0.854639 35:0.731906 36:0.870051 37:1 
0.005865102639296188 1:0.0549451 2:0.4 3:0.216895 4:0.218916 5:0.0242826 6:0.517689 7:0.0681818 8:0.0449304 9:0.416667 10:0.150713 12:0.610695 13:0.0909091 14:0.0578176 15:0.545455 16:0.164912 17:0.332632 18:0.254098 19:0.665635 20:0.04 22:0.814433 23:0.446809 24:0.335593 25:0.397959 26:0.667 27:0.1 28:0.22557 29:0.461441 30:0.498881 31:0.917 32:0.583949 33:0.385331 34:0.803093 35:0.529052 36:0.715736 37:0.967 
0.005865102639296188 1:0.0384615 2:0.4 3:0.0707763 4:0.0860786 5:0.108168 6:0.238208 7:0.0363636 9:0.416667 10:0.0651731 11:0.134538 12:0.269519 13:0.113636 15:0.454545 17:0.168421 18:0.954918 19:0.208462 20:0.28 21:0.173925 22:0.814433 23:0.0638298 24:0.0847458 25:0.122449 26:0.733 28:0.21038 30:0.0592841 31:0.533 33:0.710744 34:0.930928 35:0.704383 36:0.956345 37:1 
0.005865102639296188 1:0.10989 2:0.4 3:0.175799 4:0.272051 5:0.152318 6:0.360849 7:0.113636 8:0.0775348 9:0.5 10:0.144603 11:0.158635 12:0.309091 13:0.227273 14:0.088355 15:0.545455 16:0.0912281 17:0.252632 18:0.290984 19:0.465428 20:0.12 21:0.230791 22:0.824742 23:0.148936 24:0.210169 25:0.0918367 26:0.933 28:0.232658 29:0.801517 30:0.824385 31:0.9 32:0.771911 33:0.498967 34:0.937113 35:0.772681 36:0.97868 37:1 
0.005865102639296188 1:0.043956 2:0.4 3:0.228311 4:0.272051 5:0.136865 6:0.443396 7:0.113636 8:0.110537 9:0.416667 10:0.197556 11:0.0562249 12:0.534759 13:0.0984848 14:0.0973127 15:0.454545 17:0.294737 18:0.389344 19:0.542828 20:0.16 21:0.263245 22:0.824742 23:0.234043 24:0.19661 25:0.102041 26:0.76 28:0.249367 30:0.486577 31:0.68 33:0.605372 34:0.917526 35:0.787971 36:0.971574 37:1 
0.005865102639296188 1:0.043956 2:0.266667 3:0.214612 4:0.434644 5:0.0927152 6:0.680425 7:0.113636 8:0.112127 9:0.25 11:0.0803213 12:0.579679 13:0.189394 14:0.114821 15:0.363636 17:0.408421 18:0.422131 19:0.591331 20:0.28 21:0.250485 22:0.814433 23:0.297872 24:0.220339 25:0.112245 26:0.691 27:0.04 28:0.250633 30:0.519016 31:0.72 33:0.686983 34:0.87732 35:0.857288 36:0.95736 37:0.992 
0.005865102639296188 1:0.043956 2:0.533333 4:0.341126 5:0.0551876 6:0.795991 7:0.113636 8:0.151491 9:0.5 11:0.0522088 12:0.652406 13:0.189394 14:0.171824 15:0.545455 17:0.376842 18:0.348361 19:0.680083 20:0.12 21:0.27656 22:0.835052 23:0.234043 24:0.332203 25:0.153061 26:0.667 28:0.268608 30:0.53915 31:0.88 33:0.467975 35:0.708461 36:0.919797 37:1 
0.005865102639296188 1:0.0164835 2:0.333333 3:0.13242 4:0.209352 5:0.0220751 6:0.761792 7:0.0909091 8:0.166998 9:0.333333 10:0.173116 11:0.0341365 12:0.658824 13:0.189394 14:0.185261 15:0.454545 16:0.154386 17:0.258947 18:0.221311 19:0.821465 20:0.08 21:0.292926 22:0.814433 23:0.425532 24:0.142373 25:0.163265 26:0.675 27:0.04 28:0.289367 29:0.609355 30:0.704698 31:0.94 32:0.575502 33:0.680785 34:0.675258 35:0.802243 36:0.890355 37:0.99 
0.005865102639296188 1:0.0384615 2:0.2 3:0.216895 4:0.320935 5:0.0728477 6:0.696934 7:0.136364 8:0.161034 9:0.25 10:0.191446 11:0.0401606 12:0.633155 13:0.189394 14:0.175489 15:0.272727 16:0.168421 17:0.665263 18:0.438525 19:0.665635 20:0.48 21:0.29681 22:0.793814 23:0.404255 24:0.2 25:0.153061 26:0.773 27:0.1 28:0.263291 29:0.618205 30:0.331096 31:0.52 32:0.637804 33:0.839876 34:0.824742 35:0.820591 36:0.928934 37:0.983 
0.005865102639296188 1:0.0384615 2:0.0666667 3:0.46347 4:0.430393 5:0.112583 6:0.800708 7:0.204545 8:0.47992 11:0.208835 12:0.655615 13:0.643939 14:0.472313 15:0.0909091 16:0.340351 17:0.473684 18:0.303279 19:0.809082 20:0.12 21:0.481276 22:0.762887 23:0.468085 24:0.386441 25:0.244898 26:0.708 27:0.2 28:0.454684 30:0.860179 31:0.971 32:0.816262 33:0.509298 34:0.919588 35:0.732926 36:0.900508 37:0.978 
0.005865102639296188 1:0.0274725 2:0.466667 3:0.184932 4:0.476089 5:0.205298 8:0.238569 9:0.333333 10:0.260692 11:0.269076 14:0.260993 15:0.454545 16:0.22807 17:0.671579 18:0.286885 21:0.365049 22:0.814433 23:0.574468 24:0.416949 25:0.336735 28:0.386076 29:0.621997 30:0.912752 32:0.61774 33:0.634298 34:0.687629 35:0.739042 36:0.902538 
0.005865102639296188 1:0.032967 2:0.466667 3:0.194064 4:0.285866 7:0.0681818 8:0.249304 9:0.416667 10:0.283096 11:0.0863454 13:0.30303 14:0.248779 15:0.454545 16:0.22807 17:0.353684 18:0.266393 20:0.08 21:0.35423 22:0.814433 23:0.319149 25:0.234694 28:0.348101 29:0.672566 30:0.751678 31:0.95 32:0.812038 34:0.849485 36:0.803046 37:1 
0.005865102639296188 1:0.0824176 2:0.4 3:0.273973 4:0.321998 5:0.198675 7:0.204545 8:0.438569 9:0.416667 10:0.254582 11:0.138554 13:0.30303 14:0.442182 15:0.454545 16:0.273684 17:0.404211 18:0.278689 20:0.08 21:0.488488 22:0.814433 23:0.212766 24:0.257627 25:0.102041 27:0.04 28:0.436203 29:0.475348 30:0.814318 31:0.95 32:0.920803 33:0.623967 34:0.945361 35:0.763507 36:0.980711 37:0.996 
0.005865102639296188 1:0.0494505 2:0.2 3:0.289954 4:0.301807 5:0.0860927 7:0.127273 8:0.614314 9:0.25 10:0.291242 11:0.110442 13:0.265152 14:0.727199 15:0.272727 16:0.4 17:0.404211 18:0.377049 20:0.16 21:0.570042 22:0.793814 24:0.210169 25:0.142857 28:0.531646 29:0.256637 30:0.655481 31:0.9 33:0.69938 35:0.797146 36:0.940102 37:1 
0.005865102639296188 1:0.0494505 2:0.4 3:0.299087 4:0.340064 5:0.0618102 7:0.113636 8:0.383698 9:0.416667 10:0.274949 11:0.0843373 13:0.189394 14:0.397394 15:0.454545 16:0.315789 17:0.450526 18:0.360656 20:0.08 21:0.406657 22:0.804124 23:0.319149 24:0.250847 25:0.142857 27:0.04 28:0.423291 29:0.420986 30:0.616331 31:0.92 32:0.87962 33:0.67562 34:0.912371 35:0.783894 36:0.929949 37:0.992 
0.005865102639296188 1:0.0384615 2:0.6 3:0.30137 4:0.306057 5:0.0375276 7:0.0590909 8:0.344334 9:0.833333 10:0.291242 11:0.0843373 13:0.227273 14:0.403502 15:0.909091 16:0.280702 17:0.387368 18:0.303279 20:0.08 21:0.452705 22:0.85567 23:0.234043 24:0.216949 25:0.132653 28:0.435443 29:0.557522 30:0.695749 31:0.933 32:0.911299 33:0.673554 34:0.945361 35:0.793068 36:0.923858 37:1 
0.005865102639296188 1:0.0456044 2:0.666667 3:0.773973 4:0.757705 5:0.271523 6:0.854953 7:0.454545 8:0.578529 9:0.583333 10:0.680244 11:0.473896 12:0.894118 13:0.643939 14:0.568404 15:0.545455 16:0.782456 17:0.783158 18:0.47541 19:0.872033 20:0.52 21:0.570042 22:0.783505 23:0.361702 24:0.281356 25:0.122449 26:0.717 27:0.02 28:0.589873 29:0.419722 30:0.895973 31:0.847 32:0.975713 33:0.802686 34:0.979381 35:0.901121 36:0.980711 37:0.999 
0.005865102639296188 1:0.0549451 2:0.6 3:0.577626 4:0.502657 5:0.112583 6:0.935142 7:0.318182 8:0.506958 9:0.666667 10:0.509165 11:0.134538 12:0.8 13:0.454545 14:0.503257 15:0.727273 16:0.708772 17:0.808421 18:0.459016 19:0.847265 20:0.08 21:0.592233 22:0.793814 23:0.489362 24:0.355932 25:0.22449 26:0.891 27:0.02 28:0.539241 29:0.242731 30:0.60962 31:0.967 32:0.935586 33:0.751033 34:0.937113 35:0.793068 36:0.909645 37:0.999 
0.005865102639296188 1:0.324176 2:0.8 3:0.490868 4:0.467588 5:0.0883002 6:0.819575 8:0.264414 9:0.833333 10:0.464358 11:0.116466 12:0.721925 14:0.282573 15:0.727273 16:0.396491 17:0.448421 18:0.319672 19:0.793602 21:0.35423 22:0.804124 23:0.191489 24:0.20339 25:0.132653 26:0.769 28:0.349114 29:0.637168 30:0.736018 32:0.971489 33:0.741736 34:0.987629 35:0.880734 36:0.946193 
0.005865102639296188 1:0.0598901 2:1 3:0.808219 4:0.572795 5:0.134658 6:0.803066 7:0.25 8:0.359841 9:0.916667 11:0.0662651 12:0.757219 13:0.189394 14:0.392101 15:1 16:0.4 17:0.749474 18:0.532787 19:0.810114 20:0.6 21:0.400555 22:0.814433 23:0.297872 24:0.227119 25:0.173469 26:0.824 27:0.02 28:0.344051 30:0.302013 31:0.4 32:0.926082 33:0.838843 34:0.989691 35:0.892966 36:0.941117 37:0.998 
0.005865102639296188 1:0.0824176 2:0.733333 3:0.689498 4:0.601488 5:0.112583 6:0.823113 7:0.259091 8:0.61829 9:0.833333 10:0.649695 11:0.104418 12:0.73262 13:0.477273 14:0.621336 15:0.727273 17:1 18:0.590164 19:0.759546 20:0.68 21:0.586685 30:0.372483 31:0.73 
0.005865102639296188 1:0.299451 2:0.533333 3:0.753425 4:0.543039 5:0.0816777 6:0.935142 7:0.181818 8:0.554672 9:0.583333 10:0.757637 11:0.100402 12:0.796791 13:0.378788 14:0.564332 15:0.727273 16:0.715789 17:0.833684 18:0.52459 19:0.805986 20:0.4 21:0.545076 22:0.793814 23:0.723404 24:0.40339 25:0.336735 26:0.808 27:0.02 28:0.574684 29:0.571429 30:0.442953 31:0.8 32:0.87962 33:0.722107 34:0.924742 35:0.781855 36:0.833503 37:0.998 
0.005865102639296188 1:0.324176 2:0.666667 3:0.739726 4:0.572795 5:0.0949227 6:0.915094 7:0.204545 8:0.54672 9:0.75 10:0.574338 11:0.0783133 12:0.776471 13:0.340909 14:0.596906 15:0.727273 16:0.712281 17:0.833684 18:0.45082 19:0.882353 20:0.4 21:0.567268 22:0.804124 23:0.446809 24:0.301695 25:0.193878 26:0.895 27:0.02 28:0.559494 29:0.353982 30:0.470917 31:0.778 32:0.947202 33:0.80062 34:0.963918 35:0.851172 36:0.916751 37:0.998 
0.005865102639296188 1:0.157692 2:0.6 3:0.657534 4:0.487779 5:0.116998 6:0.863208 8:0.413519 9:0.583333 10:0.812627 11:0.146586 12:0.762567 14:0.397394 15:0.545455 16:0.642105 17:0.766316 18:0.42623 19:0.793602 21:0.456033 22:0.783505 23:0.382979 24:0.254237 25:0.183673 26:0.844 28:0.443038 29:0.683944 30:0.667785 32:0.952482 33:0.820248 34:0.96701 35:0.853211 36:0.930964 
0.005865102639296188 1:1 2:0.6 3:0.383562 4:0.354942 5:0.0949227 6:0.770047 7:0.318182 8:0.602386 9:0.666667 10:0.382892 11:0.0763052 12:0.705882 13:0.340909 14:0.568404 15:0.818182 16:0.466667 17:0.442105 18:0.303279 19:0.809082 20:0.08 21:0.583911 22:0.804124 23:0.425532 24:0.250847 25:0.204082 26:0.85 28:0.587342 29:0.370417 30:0.677852 31:0.956 32:0.897571 33:0.669421 34:0.908247 35:0.793068 36:0.911675 37:1 
0.005865102639296188 1:0.0824176 2:0.733333 3:0.413242 4:0.369819 5:0.0816777 6:1 7:0.204545 8:0.247316 9:0.833333 10:0.566191 11:0.0883534 12:0.834225 13:0.416667 14:0.311482 15:0.909091 16:0.435088 17:0.555789 18:0.311475 19:0.923633 20:0.08 21:0.404716 22:0.804124 23:0.446809 24:0.162712 25:0.193878 26:0.905 28:0.406329 29:0.700379 30:0.693512 31:0.964 32:0.877508 33:0.845041 34:0.91134 35:0.878695 36:0.91066 37:1 
0.005865102639296188 1:0.0824176 2:0.6 3:0.655251 4:0.514346 5:0.218543 6:0.903302 7:0.263636 8:0.372962 9:0.666667 10:0.798371 11:0.196787 12:0.805348 13:0.416667 14:0.377036 15:0.727273 16:0.54386 17:0.698947 18:0.483607 19:0.857585 20:0.12 21:0.469348 22:0.804124 23:0.468085 24:0.271186 25:0.163265 26:0.925 27:0.1 28:0.475949 29:0.764855 30:0.690157 31:0.945 32:0.906019 33:0.784091 34:0.951546 35:0.851172 36:0.962437 37:0.991 
0.005865102639296188 1:0.0494505 2:0.266667 3:0.46347 4:0.319872 5:0.0397351 6:0.807783 8:0.232207 9:0.416667 10:0.466395 11:0.064257 12:0.693048 14:0.246336 15:0.545455 16:0.473684 17:0.509474 18:0.442623 19:0.745098 21:0.357836 22:0.783505 24:0.172881 25:0.326531 26:0.788 28:0.362025 29:0.518331 30:0.431767 33:0.815083 35:0.847095 36:0.792893 
0.005865102639296188 1:0.0527473 2:0.4 3:0.6621 4:0.399575 5:0.0397351 6:0.985849 8:0.288668 9:0.416667 10:0.452138 11:0.0421687 12:0.916578 14:0.303746 15:0.363636 16:0.526316 17:0.509474 18:0.295082 19:0.859649 21:0.377531 22:0.773196 24:0.301695 25:0.193878 26:0.926 28:0.377468 29:0.409608 30:0.595078 33:0.652893 35:0.777778 36:0.883249 
0.005865102639296188 1:0.0291209 2:0.466667 3:0.52968 4:0.534538 5:0.0927152 6:0.924528 7:0.272727 8:0.192843 9:0.5 10:0.828921 11:0.108434 12:0.855615 13:0.416667 14:0.20684 15:0.636364 16:0.522807 17:0.625263 18:0.459016 19:0.829721 20:0.16 21:0.300139 22:0.804124 25:0.142857 26:0.943 27:0.02 28:0.354177 29:0.801517 30:0.549217 31:0.936 36:0.942132 37:0.998 
0.005865102639296188 1:0.285714 2:0.533333 4:0.193411 5:0.0264901 6:0.721698 7:0.113636 8:0.116103 9:0.583333 11:0.0783133 12:0.540107 13:0.227273 14:0.133143 15:0.636364 17:0.288421 18:0.311475 19:0.868937 20:0.08 21:0.283218 22:0.804124 24:0.142373 25:0.112245 26:0.764 27:0.02 28:0.282785 30:0.671141 31:0.933 33:0.715909 35:0.783894 36:0.93198 37:0.996 
0.005865102639296188 1:0.445055 2:0.533333 3:0.283105 4:0.49203 5:0.13245 6:0.563679 8:0.351491 9:0.5 10:0.250509 11:0.118474 12:0.520856 13:0.227273 14:0.355049 15:0.545455 16:0.329825 17:0.528421 18:0.360656 19:0.656347 21:0.428849 22:0.783505 23:0.574468 24:0.305085 25:0.204082 26:0.7 28:0.393418 29:0.298357 30:0.690157 32:0.752904 33:0.66219 34:0.806186 35:0.821611 36:0.926904 
0.005865102639296188 1:0.082967 2:0.666667 3:0.550228 4:0.731137 5:0.1766 6:0.628538 7:0.204545 8:0.33837 9:0.75 10:0.674134 11:0.13253 12:0.595722 13:0.318182 14:0.348941 15:0.818182 16:0.438596 17:0.618947 18:0.442623 19:0.630547 20:0.08 21:0.40638 22:0.804124 23:0.553191 25:0.214286 26:0.648 27:0.02 28:0.356709 29:0.786346 30:0.623043 31:0.952 32:0.836325 34:0.919588 36:0.936041 37:0.998 
0.005865102639296188 1:0.0263736 2:0.866667 3:0.573059 4:0.475027 5:0.0463576 6:0.775943 7:0.15 8:0.419483 9:0.916667 10:0.635438 11:0.0923695 12:0.670588 13:0.287879 14:0.881922 15:0.818182 16:0.673684 17:0.924211 18:0.442623 19:0.745098 20:0.36 21:0.667129 22:0.814433 23:0.553191 24:0.535593 25:0.306122 26:0.827 27:0.02 28:0.567089 29:0.486726 30:0.526846 31:0.76 32:0.913411 33:0.661157 34:0.923711 35:0.659531 36:0.815228 37:0.997 
0.005865102639296188 1:0.00714286 2:0.666667 3:0.438356 4:0.379384 5:0.19426 6:0.931604 8:0.888668 9:0.5 10:0.258656 11:0.118474 12:0.752941 14:0.922638 15:0.363636 16:0.554386 17:0.64 18:0.377049 19:0.919505 21:0.747573 22:0.783505 23:0.574468 24:0.261017 25:0.316327 26:0.877 28:0.706329 30:0.671141 32:0.875396 33:0.771694 34:0.885567 35:0.799185 36:0.905584 
0.002932551319648908 1:0.043956 2:0.666667 3:0.335616 4:0.238045 5:0.0397351 6:0.775943 7:0.181818 8:0.414712 9:0.75 10:0.240326 11:0.0261044 12:0.713369 13:0.106061 14:0.417752 15:0.636364 16:0.298246 17:0.223158 18:0.303279 19:0.72549 20:0.08 21:0.451318 22:0.793814 23:0.319149 24:0.0779661 25:0.183673 26:0.822 28:0.432152 29:0.353982 30:0.519016 31:0.857 32:0.870116 33:0.808884 34:0.925773 35:0.914373 36:0.890355 37:1 
0.005865102639296188 1:0.123077 2:0.8 3:0.445205 4:0.416578 5:0.0860927 6:0.82783 7:0.181818 8:0.82505 9:0.75 10:0.443992 11:0.0983936 12:0.713369 13:0.30303 14:0.800489 15:0.636364 16:0.45614 17:0.562105 18:0.336066 19:0.804954 20:0.12 21:0.683773 22:0.814433 23:0.382979 24:0.291525 25:0.193878 26:0.789 28:0.637975 29:0.510746 30:0.682327 31:0.938 32:0.910243 33:0.700413 34:0.936082 35:0.796126 36:0.91269 37:1 
0.005865102639296188 1:0.116484 2:0.666667 3:0.449772 4:0.528162 5:0.15894 6:0.863208 7:0.295455 8:0.385686 9:0.75 11:0.162651 12:0.71016 13:0.530303 14:0.39373 15:0.818182 16:0.45614 17:0.646316 18:0.540984 19:0.750258 20:0.52 21:0.447157 22:0.793814 23:0.212766 24:0.237288 25:0.193878 26:0.737 28:0.479494 30:0.579418 31:0.821 32:0.974657 33:0.797521 34:0.978351 35:0.875637 36:0.939086 37:1 
0.005865102639296188 1:0.148352 2:0.733333 3:0.394977 4:0.453773 5:0.108168 6:0.839623 7:0.25 8:0.502584 9:0.916667 10:0.450102 11:0.0923695 12:0.75508 13:0.378788 14:0.505293 15:0.909091 16:0.396491 17:0.612632 18:0.336066 19:0.855521 20:0.08 21:0.492926 22:0.793814 23:0.340426 24:0.355932 25:0.204082 26:0.86 27:0.04 28:0.452911 29:0.618205 30:0.668904 31:0.97 32:0.906019 33:0.660124 34:0.936082 35:0.768603 36:0.917766 37:0.996 
0.005865102639296188 1:0.032967 2:0.6 3:0.554795 4:0.607864 5:0.0993377 6:0.919811 7:0.204545 8:0.622266 9:0.75 10:0.588595 11:0.128514 12:0.793583 13:0.492424 14:0.662052 15:0.636364 16:0.582456 17:0.783158 18:0.401639 19:0.842105 20:0.08 21:0.619972 22:0.804124 23:0.276596 24:0.291525 25:0.132653 26:0.892 28:0.564557 29:0.538559 30:0.662192 31:0.977 32:0.973601 33:0.794421 34:0.976289 35:0.866463 36:0.949239 37:1 
0.005865102639296188 1:0.0675824 2:0.666667 3:0.721461 4:0.789586 5:0.187638 6:0.850236 7:0.295455 8:0.666004 9:0.416667 10:0.739308 11:0.148594 12:0.757219 13:0.530303 14:0.710912 15:0.727273 16:0.592982 17:0.858947 18:0.459016 19:0.79257 20:0.12 21:0.636616 22:0.793814 23:0.340426 24:0.332203 25:0.163265 26:0.775 27:0.02 28:0.559494 29:0.675095 30:0.636465 31:0.964 32:0.955649 33:0.785124 34:0.978351 35:0.884811 36:0.95736 37:0.998 
0.005865102639296188 1:0.115385 2:0.6 3:0.689498 4:0.746015 5:0.147903 6:0.889151 7:0.386364 8:0.701789 9:0.583333 10:0.727088 11:0.192771 12:0.760428 13:0.871212 14:0.625407 15:0.636364 16:0.680702 17:0.867368 18:0.467213 19:0.851393 20:0.08 21:0.708738 22:0.804124 23:0.404255 24:0.4 25:0.183673 26:0.833 28:0.655696 29:0.57775 30:0.699105 31:0.983 32:0.952482 33:0.737603 34:0.965979 35:0.848114 36:0.940102 37:1 
0.005865102639296188 1:0.197802 2:0.466667 3:0.714612 4:0.36238 5:0.443709 6:0.396226 7:0.272727 8:0.0795229 9:0.5 10:0.417515 11:0.409639 12:0.361497 13:0.568182 14:0.106678 15:0.545455 16:0.375439 17:0.421053 18:0.434426 19:0.662539 20:0.08 21:0.254369 22:0.814433 23:0.276596 24:0.250847 25:0.163265 26:0.8 28:0.258481 29:0.604298 30:0.89038 31:0.973 32:0.928194 33:0.650826 34:0.987629 35:0.798165 36:0.983756 37:1 
0.005865102639296188 1:0.32967 2:0.333333 3:0.684932 4:0.648247 5:0.377483 6:0.53184 7:0.363636 8:0.237773 9:0.333333 10:0.763747 11:0.445783 12:0.469519 13:0.757576 14:0.243485 15:0.363636 16:0.526316 17:0.68 18:0.868852 19:0.506708 20:1 21:0.319834 22:0.793814 23:0.446809 24:0.39322 25:0.142857 26:0.857 27:0.04 28:0.286835 29:0.758534 30:0.692394 31:0.75 32:0.908131 33:0.66219 34:0.958763 35:0.825688 36:0.983756 37:0.998 
0.005865102639296188 1:0.32967 2:0.4 3:0.40411 4:0.437832 5:0.0949227 6:0.818396 7:0.204545 8:0.586481 9:0.416667 10:0.672098 11:0.365462 12:0.557219 13:0.568182 14:0.65798 15:0.454545 16:0.529825 17:0.576842 18:0.508197 19:0.632611 20:0.12 21:0.628294 22:0.793814 23:0.170213 24:0.305085 25:0.173469 26:0.765 27:0.04 28:0.562025 29:0.685209 30:0.826622 31:0.967 32:1 33:0.694215 34:0.984536 35:0.797146 36:0.926904 37:0.996 
0.005865102639296188 1:0.108242 2:0.0666667 3:0.294521 4:0.25186 5:0.136865 6:0.454009 7:0.0681818 8:0.188867 9:0.0833333 10:0.250509 11:0.116466 12:0.450267 13:0.151515 14:0.198697 15:0.0909091 16:0.25614 17:0.368421 18:0.45082 19:0.356037 20:0.08 21:0.339528 22:0.773196 23:0.148936 24:0.223729 25:0.193878 26:0.632 27:0.04 28:0.412911 29:0.514539 30:0.579418 31:0.9 32:0.954593 33:0.643595 34:0.975258 35:0.735984 36:0.932995 37:0.987 
0.005865102639296188 1:0.263736 2:0.533333 3:0.319635 4:0.589798 5:0.189845 6:0.535377 7:0.295455 8:0.0536779 9:0.583333 10:0.272912 11:0.0963855 12:0.514439 13:0.265152 14:0.0716612 15:0.545455 16:0.154386 17:0.336842 18:0.311475 19:0.624355 20:0.08 21:0.227739 22:0.804124 23:0.148936 24:0.254237 25:0.102041 26:0.72 27:0.04 28:0.223291 29:0.849558 30:0.710291 31:0.943 32:0.888068 33:0.548554 34:0.979381 35:0.881753 36:0.979695 37:0.997 
0.005865102639296188 1:0.043956 2:0.466667 3:0.353881 4:0.258236 5:0.110375 6:0.561321 7:0.113636 8:0.0528827 9:0.5 10:0.346232 11:0.0261044 12:0.558289 13:0.113636 14:0.0586319 15:0.636364 16:0.312281 17:0.28 18:0.303279 19:0.781218 20:0.12 21:0.22663 22:0.824742 23:0.191489 24:0.118644 25:0.122449 26:0.583 27:0.04 28:0.227342 29:0.60177 30:0.519016 31:0.833 32:0.949314 33:0.761364 34:0.971134 35:0.872579 36:0.95736 37:0.992 
0.005865102639296188 1:0.0824176 2:0.8 3:0.445205 4:0.261424 5:0.0684327 6:0.713443 7:0.159091 8:0.364215 9:0.833333 10:0.374745 11:0.0441767 12:0.740107 13:0.287879 14:0.346091 15:0.818182 16:0.322807 17:0.347368 18:0.352459 19:0.744066 20:0.16 21:0.427462 22:0.824742 23:0.234043 24:0.142373 25:0.183673 26:0.778 27:0.02 28:0.413924 29:0.632111 30:0.502237 31:0.893 32:0.92925 33:0.769628 34:0.973196 35:0.845056 36:0.908629 37:0.997 
0.005865102639296188 1:0.32967 2:0.666667 3:0.422374 4:0.354942 5:0.0507726 6:0.711085 7:0.181818 8:0.505765 9:0.833333 10:0.441955 11:0.0502008 12:0.686631 13:0.30303 14:0.564332 15:0.818182 16:0.424561 17:0.629474 18:0.467213 19:0.669763 20:0.2 21:0.545076 22:0.814433 23:0.340426 24:0.220339 25:0.112245 26:0.8 27:0.06 28:0.516456 29:0.558786 30:0.331096 31:0.875 32:0.916579 33:0.808884 34:0.942268 35:0.820591 36:0.943147 37:0.993 
0.005865102639296188 1:0.0879121 2:0.4 3:0.39726 4:0.183847 5:0.0264901 6:0.810142 7:0.113636 8:0.100199 9:0.416667 10:0.336049 11:0.00200803 12:0.731551 13:0.151515 14:0.108306 15:0.454545 16:0.364912 17:0.425263 18:0.409836 19:0.722394 20:0.12 21:0.25742 22:0.804124 23:0.446809 24:0.274576 25:0.285714 26:0.757 27:0.2 28:0.279747 29:0.467762 30:0.137584 31:0.875 32:0.842661 33:0.618802 34:0.906186 35:0.542304 36:0.803046 37:0.96 
0.005865102639296188 1:0.137363 2:0.6 3:0.248858 4:0.22423 5:0.84989 6:0.15566 7:0.25 8:0.409543 9:0.5 10:0.313646 11:1 12:0.146524 13:0.530303 14:0.333876 15:0.636364 16:0.161404 17:0.233684 18:0.483607 19:0.455108 20:0.16 21:0.408044 22:0.814433 23:0.148936 24:0.118644 25:0.132653 26:0.769 27:0.02 28:0.378481 29:0.88622 30:1 31:0.95 32:0.895459 33:0.707645 34:0.964948 35:0.850153 36:1 37:0.998 
0.005865102639296188 1:0.192308 2:0.466667 3:0.273973 4:0.301807 5:0.450331 6:0.209906 7:0.181818 8:0.132406 9:0.5 10:0.234216 11:0.349398 12:0.213904 13:0.30303 14:0.135179 15:0.636364 16:0.322807 17:0.452632 18:0.54918 19:0.446852 20:0.2 21:0.291262 22:0.824742 23:0.234043 24:0.298305 25:0.204082 26:0.54 27:0.02 28:0.296456 29:0.252845 30:0.793065 31:0.888 32:0.92925 33:0.610537 34:0.936082 35:0.703364 36:0.975635 37:0.998 
0.005865102639296188 1:0.10989 2:0.533333 3:0.557078 5:0.0927152 6:0.595519 7:0.145455 8:0.465209 9:0.583333 11:0.172691 12:0.452406 13:0.212121 14:0.556189 15:0.545455 16:0.494737 17:0.528421 18:0.57377 19:0.545924 20:0.24 21:0.536755 22:0.824742 23:0.276596 24:0.213559 25:0.163265 26:0.625 27:0.04 28:0.513924 30:0.567114 31:0.786 32:0.958817 33:0.77376 34:0.976289 36:0.93198 37:0.994 
0.005865102639296188 1:0.328022 2:0.6 4:0.199787 5:0.0198675 6:0.792453 7:0.0909091 8:0.298211 9:0.666667 11:0.0461847 12:0.595722 13:0.151515 14:0.315554 15:0.545455 17:0.370526 18:0.327869 19:0.825593 20:0.12 21:0.37448 22:0.804124 24:0.2 25:0.244898 26:0.733 27:0.04 28:0.396456 30:0.552573 31:0.85 33:0.686983 35:0.699286 36:0.825381 37:0.99 
0.005865102639296188 1:0.0549451 2:0.666667 4:0.408077 5:0.0772627 6:0.759434 7:0.159091 8:0.338767 9:0.75 11:0.11245 12:0.592513 13:0.189394 14:0.324919 15:0.727273 17:0.568421 18:0.45082 19:0.656347 20:0.12 21:0.411928 22:0.804124 24:0.413559 25:0.22449 26:0.682 27:0.02 28:0.37038 30:0.569351 31:0.88 33:0.566116 35:0.695209 36:0.891371 37:0.997 
0.005865102639296188 1:0.0274725 2:0.533333 4:0.326249 5:0.0949227 6:0.709906 7:0.181818 8:0.334791 9:0.583333 11:0.116466 12:0.525134 13:0.378788 14:0.35057 15:0.636364 17:0.490526 18:0.393443 19:0.644995 20:0.12 21:0.425798 22:0.814433 24:0.250847 25:0.265306 26:0.6 27:0.02 28:0.414937 30:0.647651 31:0.94 33:0.704545 35:0.7737 36:0.880203 37:0.998 
0.005865102639296188 1:0.113736 2:0.333333 3:0.627854 4:0.587673 5:0.461369 6:0.517689 7:0.318182 8:0.15507 9:0.416667 10:0.338086 11:0.405622 12:0.481283 13:0.643939 14:0.187296 15:0.545455 16:0.294737 17:0.557895 18:0.647541 19:0.614035 20:0.56 21:0.370874 22:0.793814 23:0.510638 24:0.294915 25:0.295918 26:0.828 27:0.2 28:0.451139 29:0.624526 30:0.776286 31:0.835 32:0.75396 33:0.694215 34:0.941237 35:0.859327 36:0.959391 37:0.986 
0.005865102639296188 1:0.043956 2:0.4 3:0.385845 4:0.35813 5:0.0242826 6:0.893868 7:0.113636 8:0.339165 9:0.5 10:0.391039 11:0.0923695 12:0.73369 13:0.340909 14:0.330619 15:0.545455 16:0.480702 17:0.698947 18:0.516393 19:0.80289 20:0.72 21:0.396949 22:0.793814 23:0.297872 24:0.240678 25:0.142857 26:0.943 27:0.04 28:0.367089 29:0.361568 30:0.427293 31:0.6 32:0.948258 33:0.811983 34:0.945361 35:0.804281 36:0.907614 37:0.992 
0.005865102639296188 1:0.0769231 2:0.466667 3:0.497717 4:0.289054 5:0.116998 6:0.479953 8:0.256461 9:0.5 10:0.531568 11:0.124498 12:0.471658 14:0.25 15:0.454545 16:0.540351 17:0.448421 18:0.409836 19:0.660475 21:0.372261 22:0.793814 23:0.340426 24:0.342373 25:0.183673 26:0.844 28:0.383291 29:0.518331 30:0.644295 32:0.946146 33:0.543388 34:0.95567 35:0.641182 36:0.930964 
0.005865102639296188 1:0.115385 2:0.466667 3:0.490868 4:0.583422 5:0.136865 6:0.846698 7:0.25 8:0.658052 9:0.5 10:0.668024 11:0.160643 12:0.773262 13:0.378788 14:0.690554 15:0.545455 16:0.715789 17:0.901053 18:0.459016 19:0.811146 20:0.4 21:0.631068 22:0.804124 23:0.382979 24:0.342373 25:0.183673 26:0.889 28:0.582278 29:0.477876 30:0.657718 31:0.8 32:0.963041 33:0.789256 34:0.94433 35:0.831804 36:0.937056 37:1 
0.005865102639296188 1:0.0681319 2:0.533333 3:0.408676 4:0.483528 5:0.0640177 6:0.82783 7:0.195455 8:0.276342 9:0.583333 10:0.364562 11:0.0542169 12:0.747594 13:0.227273 14:0.257736 15:0.545455 17:0.791579 18:0.42623 19:0.813209 20:0.04 21:0.356727 22:0.783505 23:0.510638 24:0.335593 25:0.22449 26:0.864 28:0.304557 30:0.417226 31:0.967 33:0.761364 34:0.892784 35:0.797146 36:0.882234 37:1 
0.005865102639296188 1:0.186813 2:0.466667 3:0.515982 4:0.663124 5:0.169978 6:0.884434 8:0.570577 9:0.416667 10:0.684318 11:0.114458 12:0.804278 14:0.552117 15:0.363636 16:0.575439 17:0.732632 18:0.336066 19:0.981424 21:0.597781 22:0.783505 23:0.574468 24:0.20339 25:0.22449 26:0.864 28:0.559494 29:0.647282 30:0.712528 32:0.881732 33:0.855372 34:0.908247 35:0.921509 36:0.930964 
0.005865102639296188 1:0.142857 2:0.466667 3:0.203196 4:0.187035 5:0.0618102 6:0.425708 7:0.0545455 8:0.136779 9:0.583333 10:0.197556 11:0.106426 12:0.343316 13:0.143939 14:0.175489 15:0.636364 16:0.252632 17:0.338947 18:0.352459 19:0.503612 20:0.08 21:0.270458 22:0.793814 23:0.319149 25:0.142857 26:0.857 28:0.26481 29:0.326169 30:0.677852 31:0.921 32:0.836325 34:0.856701 36:0.929949 37:1 
0.005865102639296188 1:0.18022 2:0.466667 3:0.39726 5:0.0551876 6:0.795991 7:0.140909 8:0.285487 9:0.5 10:0.413442 11:0.0341365 12:0.703743 13:0.227273 14:0.27443 15:0.545455 16:0.466667 18:0.336066 19:0.830753 20:0.08 21:0.384743 22:0.804124 23:0.361702 25:0.183673 26:0.798 28:0.369367 29:0.436157 30:0.489933 31:0.933 32:0.920803 34:0.929897 36:0.901523 37:1 
0.005865102639296188 1:0.467033 2:0.2 3:0.356164 4:0.330499 5:0.128035 6:0.793632 8:0.143141 9:0.166667 10:0.521385 11:0.0923695 12:0.691979 14:0.163681 15:0.181818 16:0.392982 17:0.383158 18:0.377049 19:0.785346 21:0.292926 22:0.762887 23:0.255319 24:0.0983051 25:0.153061 26:0.8 28:0.296203 29:0.711757 30:0.614094 32:0.942978 33:0.868802 34:0.951546 35:0.924567 36:0.948223 
0.005865102639296188 1:0.10989 2:0.333333 3:0.833333 4:0.393199 5:0.0684327 6:0.740566 8:0.0846918 9:0.25 10:0.602851 11:0.0843373 12:0.589305 14:0.0903909 15:0.363636 16:0.326316 17:0.284211 18:0.327869 19:0.799794 21:0.237171 22:0.783505 23:0.276596 24:0.237288 25:0.163265 26:0.875 28:0.237975 29:0.867257 30:0.662192 32:0.908131 33:0.496901 34:0.993814 35:0.826707 36:0.920812 
0.005865102639296188 1:0.0857143 2:0.8 3:0.525114 4:0.549416 5:0.119205 6:0.886792 7:0.227273 8:0.369781 9:1 10:0.547862 11:0.100402 12:0.787166 13:0.340909 14:0.391694 15:0.909091 16:0.540351 17:0.734737 18:0.418033 19:0.829721 20:0.16 21:0.436338 22:0.824742 23:0.340426 24:0.277966 25:0.132653 26:0.923 27:0.02 28:0.419747 29:0.541087 30:0.580537 31:0.911 32:0.946146 33:0.790289 34:0.958763 35:0.857288 36:0.954315 37:0.998 
0.005865102639296188 1:0.549451 2:0.6 3:0.518265 4:0.862912 5:0.264901 6:0.700472 7:0.0318182 8:0.316899 9:0.666667 10:0.657841 11:0.246988 12:0.639572 13:0.55303 14:0.357492 15:0.727273 16:0.614035 17:0.867368 18:0.614754 19:0.729618 20:0.48 21:0.399168 22:0.804124 23:0.446809 24:0.308475 25:0.204082 26:0.9 27:0.2 28:0.396203 29:0.579014 30:0.649888 31:0.834 32:0.92925 33:0.804752 34:0.935052 35:0.905199 36:0.95736 37:0.857 
0.005865102639296188 1:0.145604 2:0.8 3:0.520548 4:0.502657 5:0.0993377 6:0.872642 8:0.328827 9:0.833333 10:0.456212 11:0.168675 12:0.741176 14:0.338762 15:0.727273 16:0.512281 17:0.705263 18:0.434426 19:0.836945 21:0.436338 22:0.793814 23:0.659574 24:0.39661 25:0.22449 26:0.909 28:0.416456 29:0.439949 30:0.694631 32:0.832101 33:0.672521 34:0.890722 35:0.767584 36:0.903553 
0.005865102639296188 1:0.109341 2:0.533333 3:0.509132 4:0.553666 5:0.108168 6:0.872642 7:0.240909 8:0.345924 9:0.583333 10:0.468432 11:0.0883534 12:0.802139 13:0.378788 14:0.342427 15:0.545455 16:0.554386 17:0.688421 18:0.491803 19:0.773994 20:0.44 21:0.419417 22:1 23:0.446809 25:0.173469 26:0.882 27:0.04 28:0.432405 29:0.395702 30:0.447427 31:0.78 32:0.915523 34:0.934021 36:0.93198 37:1 
0.005865102639296188 1:0.587912 2:0.6 3:0.563927 4:0.557917 5:0.169978 6:0.839623 7:0.286364 8:0.354274 9:0.75 10:0.468432 11:0.150602 12:0.726203 13:0.530303 14:0.359935 15:0.727273 16:0.519298 17:0.713684 18:0.516393 19:0.769866 20:0.32 21:0.410264 22:0.804124 23:0.510638 25:0.214286 26:0.857 27:0.1 28:0.368354 29:0.451327 30:0.580537 31:0.886 32:0.8849 34:0.930928 36:0.93401 37:0.992 
0.005865102639296188 1:0.291209 2:0.666667 3:0.586758 4:0.668438 5:0.222958 6:0.846698 7:0.340909 8:0.440557 9:0.75 10:0.527495 11:0.15261 12:0.770053 13:0.477273 14:0.428746 15:0.818182 16:0.698246 17:0.787368 18:0.42623 19:0.813209 20:0.24 21:0.495423 22:0.804124 23:0.595745 24:0.366102 25:0.22449 26:0.909 27:0.04 28:0.468354 29:0.2933 30:0.677852 31:0.904 32:0.907075 33:0.734504 34:0.918557 35:0.844037 36:0.943147 37:0.997 
0.005865102639296188 1:0.450549 2:0.6 3:0.454338 4:0.516472 5:0.143488 6:0.805425 7:0.409091 8:0.353877 9:0.666667 10:0.527495 11:0.240964 12:0.729412 13:1 14:0.394951 15:0.727273 16:0.589474 17:0.829474 18:0.47541 19:0.783282 20:0.16 21:0.442164 22:0.793814 23:0.659574 24:0.498305 25:0.285714 26:0.857 27:0.06 28:0.448101 29:0.443742 30:0.749441 31:0.97 32:0.860612 33:0.647727 34:0.870103 35:0.711519 36:0.896447 37:1 
0.005865102639296188 1:0.340659 2:0.6 3:0.506849 4:0.703507 5:0.156733 6:0.805425 7:0.295455 8:0.405169 9:0.75 10:0.509165 11:0.198795 12:0.0759358 13:0.55303 14:0.414902 15:0.818182 16:0.614035 17:0.728421 18:0.42623 19:0.813209 20:0.24 21:0.472677 22:0.804124 23:0.510638 24:0.291525 25:0.255102 26:0.96 27:0.14 28:0.461013 29:0.379267 30:0.743848 31:0.917 32:0.911299 33:0.775826 34:0.919588 35:0.88685 36:0.914721 37:0.99 
0.005865102639296188 1:0.417582 2:0.466667 3:0.465753 4:0.498406 5:0.112583 6:0.89033 7:0.227273 8:0.170974 9:0.5 10:0.513238 11:0.134538 12:0.75615 13:0.492424 14:0.192182 15:0.727273 16:0.540351 17:0.541053 18:0.368852 19:0.871001 20:0.12 21:0.301526 22:0.804124 23:0.382979 24:0.0677966 25:0.142857 26:0.886 28:0.316203 29:0.491783 30:0.709172 31:0.962 32:0.932418 33:0.952479 34:0.940206 35:0.975535 36:0.948223 37:1 
0.005865102639296188 1:0.686813 2:0.2 5:0.0949227 6:0.854953 8:0.210736 9:0.25 10:0.753564 11:0.0823293 12:0.805348 14:0.191775 15:0.363636 16:0.74386 17:0.484211 18:0.45082 19:0.769866 21:0.299029 22:0.783505 23:0.319149 24:0.335593 25:0.142857 26:0.914 28:0.30557 29:0.539823 30:0.48434 32:0.980993 33:0.588843 36:0.943147 
0.005865102639296188 1:0.313187 2:0.4 3:0.525114 4:0.448459 5:0.12362 6:0.839623 7:0.227273 8:0.404771 9:0.5 10:0.771894 11:0.289157 12:0.695187 13:0.757576 14:0.438111 15:0.636364 16:0.680702 17:0.728421 18:0.5 19:0.846233 20:0.36 21:0.459917 22:0.793814 23:0.574468 24:0.359322 25:0.244898 26:0.85 27:0.04 28:0.412405 29:0.616941 30:0.777405 31:0.91 32:0.909187 33:0.716942 34:0.910309 35:0.763507 36:0.905584 37:1 
0.005865102639296188 1:0.137363 2:0.533333 3:0.6621 4:0.487779 5:0.130243 6:0.847877 7:0.340909 8:0.385288 9:0.583333 10:0.91446 11:0.186747 12:0.760428 13:0.681818 14:0.420195 15:0.636364 16:0.65614 17:0.741053 18:0.459016 19:0.940144 20:0.24 21:0.483495 22:0.804124 23:0.595745 24:0.19322 25:0.22449 26:0.873 27:0.04 28:0.440506 29:0.738306 30:0.697987 31:0.933 32:0.897571 33:0.865702 34:0.930928 35:0.892966 36:0.917766 37:1 
