svm_type c_svc
kernel_type rbf
gamma 0.027027
nr_class 2
total_sv 23
rho 0.326103
label 1 -1
nr_sv 13 10
SV
1 1:0.10989 2:0.733333 3:0.627854 4:0.524973 5:0.112583 6:0.923349 7:0.204545 8:0.538767 9:0.833333 10:0.837067 11:0.210843 12:0.783957 13:0.757576 14:0.605049 15:0.818182 16:0.585965 17:0.781053 18:0.483607 19:0.909185 20:0.2 21:0.597781 22:0.804124 23:0.382979 24:0.467797 25:0.22449 27:0.04 28:0.564557 
1 1:0.0824176 2:0.333333 3:0.452055 4:0.580234 5:0.218543 6:0.73467 7:0.590909 8:0.458847 9:0.416667 10:0.486762 11:0.309237 12:0.570053 13:1.43939 14:0.480049 15:0.545455 16:0.284211 17:0.467368 18:0.311475 19:0.868937 20:0.16 21:0.476838 22:0.793814 23:0.361702 24:0.267797 25:0.27551 26:0.778 27:0.1 28:0.453671 29:0.835651 30:0.916107 31:0.979 32:0.834213 33:0.665289 34:0.942268 35:0.87156 36:0.925888 37:0.996 
1 1:0.039011 2:0.333333 3:0.356164 4:0.293305 5:0.0397351 6:0.839623 7:0.15 8:0.218688 9:0.333333 10:0.338086 11:0.0943775 12:0.705882 13:0.340909 14:0.226384 15:0.363636 16:0.4 17:0.370526 18:0.508197 19:0.749226 20:0.36 21:0.325936 22:0.793814 23:0.638298 24:0.145763 25:0.44898 26:0.795 27:1 28:0.321519 29:0.395702 30:0.44519 31:0.8 32:0.778247 33:0.780992 34:0.83299 35:0.860347 36:0.709645 37:0.846 
1 1:0.159341 2:0.333333 3:0.762557 4:0.89373 5:0.558499 6:0.704009 7:0.636364 8:0.22664 9:0.416667 10:0.727088 11:0.461847 12:0.597861 13:1.17424 14:0.270358 15:0.545455 16:0.596491 18:0.418033 19:0.829721 20:0.16 21:0.370319 22:0.804124 23:0.489362 24:0.338983 25:0.204082 26:0.967 28:0.362785 29:0.662453 30:0.919463 31:0.974 32:0.913411 34:0.959794 35:0.898063 36:0.982741 37:1 
1 1:0.0972527 2:0.266667 3:0.262557 4:0.313496 5:0.0794702 6:0.608491 7:1.13636 8:0.272366 9:0.333333 10:0.254582 11:0.0542169 12:0.592513 13:1.43939 14:0.286645 15:0.454545 16:0.34386 17:0.473684 18:0.344262 19:0.835913 20:0.4 21:0.363662 22:0.793814 23:0.404255 24:0.19661 25:0.193878 26:0.842 27:0.1 28:0.333165 29:0.273072 30:0.552573 31:0.947 32:0.851109 33:0.766529 34:0.860825 35:0.818552 36:0.909645 37:0.998 
0.5090118290902772 1:1.84066 2:0.2 3:0.378995 4:0.511158 5:0.284768 6:0.602594 7:0.286364 8:0.254473 9:0.25 10:0.315682 11:0.190763 12:0.580749 13:0.416667 14:0.262622 15:0.545455 16:0.385965 17:0.595789 18:0.393443 19:0.773994 20:0.12 21:0.332316 22:0.824742 23:0.617021 24:0.383051 28:0.313924 29:0.366625 30:0.762864 31:0.945 32:0.777191 33:0.620868 34:0.850515 35:0.779817 
1 1:0.142857 2:0.4 3:0.452055 4:0.64187 5:0.196468 6:0.6875 7:0.213636 8:0.206759 9:0.416667 10:0.466395 11:0.110442 12:0.645989 13:0.340909 14:0.250814 15:0.363636 16:0.505263 17:0.823158 18:0.42623 19:0.754386 20:0.36 21:0.34258 22:0.793814 23:0.659574 24:0.538983 25:0.418367 26:0.829 27:0.04 28:0.354177 29:0.469027 30:0.595078 31:0.8 32:0.828933 33:0.612603 34:0.869072 35:0.751274 36:0.871066 37:0.996 
1 1:0.0494505 2:0.0666667 3:0.422374 4:0.419766 5:0.116998 6:0.731132 7:0.136364 8:0.259245 9:0.0833333 10:0.484725 11:0.120482 12:0.636364 13:0.227273 14:0.272394 15:0.181818 16:0.326316 17:0.553684 18:0.418033 19:0.606811 20:0.12 21:0.352566 22:0.783505 23:0.659574 24:0.39661 25:0.397959 26:0.718 27:0.02 28:0.36557 29:0.769912 30:0.626398 31:0.9 32:0.704329 33:0.573347 34:0.857732 35:0.717635 36:0.831472 37:1 
0.7714253897678844 1:0.0791209 2:0.2 3:0.335616 4:0.373007 5:0.13245 6:0.554245 7:0.159091 8:0.270378 9:0.333333 10:0.344196 11:0.15261 12:0.51016 13:0.318182 14:0.275244 15:0.454545 16:0.347368 17:0.532632 18:0.352459 19:0.791538 20:0.12 21:0.298197 22:0.804124 23:0.510638 24:0.301695 25:0.173469 26:0.847 27:0.02 28:0.27038 29:0.523388 30:0.753915 31:0.929 32:0.800422 33:0.669421 34:0.862887 36:0.940102 37:0.997 
0.203035954614794 1:0.0274725 2:0.4 3:0.308219 4:0.388948 5:0.143488 6:0.580189 7:0.204545 8:0.250099 9:0.333333 10:0.303462 11:0.242972 12:0.48984 13:0.530303 14:0.228013 15:0.363636 16:0.392982 17:0.463158 18:0.45082 19:0.619195 20:0.08 21:0.3043 22:0.804124 23:0.617021 24:0.284746 25:0.234694 26:0.817 27:0.04 28:0.28962 29:0.313527 30:0.770694 31:0.971 32:0.782471 33:0.63843 34:0.809278 35:0.784913 36:0.917766 37:0.996 
0.6910930479122441 1:0.00769231 2:0.333333 3:0.399543 4:0.485654 5:0.16777 6:0.711085 7:0.204545 8:0.39165 9:0.333333 11:0.24498 12:0.641711 13:0.568182 14:0.400651 15:0.454545 17:0.528421 18:0.401639 19:0.842105 20:0.12 21:0.436616 22:0.804124 23:0.531915 24:0.216949 25:0.244898 26:0.875 27:0.16 28:0.412911 30:0.810962 31:0.96 33:0.769628 34:0.883505 35:0.876656 36:0.921827 37:0.983 
0.1072661590245229 1:0.10989 2:0.333333 3:0.289954 4:0.29118 5:0.0375276 6:0.851415 7:0.0909091 8:0.125646 9:0.25 10:0.252546 11:0.0502008 12:0.739037 13:0.227273 14:0.135993 15:0.272727 16:0.280702 17:0.330526 18:0.282787 19:0.852425 20:0.08 21:0.259362 22:0.804124 23:0.191489 24:0.118644 25:0.163265 26:0.825 27:0.02 28:0.266582 33:0.802686 
0.1266182746401809 1:0.0197802 2:0.2 3:0.226027 4:0.621679 5:0.0331126 6:0.841981 8:0.0982107 9:0.25 10:0.209776 11:0.0823293 12:0.66631 14:0.102606 15:0.272727 16:0.214035 17:0.271579 18:0.22541 19:0.862745 21:0.251872 22:0.793814 23:0.531915 24:0.322034 25:0.265306 26:0.769 28:0.245063 29:0.515803 30:0.800895 32:0.62302 33:0.272727 34:0.770103 35:0.85423 36:0.826396 
-0.4084506550499036 1:0.0384615 2:0.466667 3:0.431507 4:0.50797 5:0.13245 6:0.790094 7:0.25 8:0.276342 9:0.666667 10:0.352342 11:0.0803213 12:0.668449 13:0.378788 14:0.281759 15:0.363636 16:0.603509 17:0.867368 18:0.42623 19:0.734778 20:0.16 21:0.409709 22:0.783505 23:3.23404 24:1.03729 25:1.33673 26:0.796 27:7 28:0.398734 29:0.00758534 30:0.512304 31:0.92 32:0.122492 33:0.265496 34:0.202062 35:0.366972 36:0.436548 37:0.364 
-1 1:0.0384615 2:0.266667 3:0.260274 4:0.2678 5:0.00662252 6:0.691038 7:0.0545455 8:0.207952 9:0.5 10:0.301426 11:0.0240964 12:0.691979 13:0.227273 14:0.20114 15:0.363636 16:0.277193 17:0.454737 18:0.286885 19:0.855521 20:0.12 21:0.302913 22:0.773196 23:1.78723 24:0.583051 25:1.06122 26:0.788 27:0.12 28:0.309114 29:0.589128 30:0.542506 31:0.917 33:0.210744 34:0.271134 35:0.32314 36:0.104569 37:0.954 
-1 1:0.0549451 2:0.466667 3:0.431507 4:0.485654 5:0.986755 6:0.300708 7:1.09091 8:0.2 9:0.416667 10:0.476578 11:1.27711 12:0.271658 13:2.65152 14:0.221091 15:0.363636 16:0.547368 17:0.68 18:0.57377 19:0.678019 20:0.12 21:0.339251 22:0.804124 23:0.404255 24:0.267797 25:0.214286 26:0.81 27:0.1 28:0.296709 29:0.420986 30:1.00559 31:0.991 32:0.927138 33:0.779959 34:0.926804 35:0.843017 36:0.993909 37:1 
-1 1:0.10989 2:0.266667 3:0.543379 4:0.369819 5:0.0706402 6:0.759434 7:0.159091 8:0.157058 9:0.25 10:0.757637 11:0.0120482 12:0.810695 13:0.189394 14:0.159202 15:0.0909091 16:0.603509 17:0.766316 18:0.42623 19:0.813209 20:0.4 21:0.301248 22:0.762887 23:0.93617 24:0.711864 25:0.744898 26:0.811 27:3 28:0.317975 29:0.680152 30:0.180089 31:0.6 32:0.785639 33:0.436983 34:0.840206 35:0.404689 36:0.588832 37:0.571 
-1 1:0.00659341 2:0.333333 3:0.486301 4:0.666312 5:2.09492 6:0.211085 8:0.215507 9:0.25 10:0.627291 11:1.58635 12:0.189305 14:0.25285 15:0.181818 16:0.340351 17:0.475789 18:0.270492 19:0.719298 21:0.324549 22:0.783505 23:0.340426 24:0.40339 25:0.132653 26:0.769 28:0.326329 29:0.865992 30:1.07494 32:0.881732 33:0.488636 34:0.953608 35:0.825688 36:1.00914 
-1 1:0.0412088 2:0.266667 3:0.408676 4:0.459086 5:1.234 6:0.268868 7:1.63636 8:0.466799 9:0.25 10:0.354379 11:1.58635 12:0.227807 13:3.48485 14:0.485342 15:0.363636 16:0.347368 17:0.477895 18:0.368852 19:0.688338 20:0.2 21:0.520666 22:0.783505 23:0.382979 24:0.240678 25:0.173469 26:0.824 27:0.04 28:0.489114 29:0.54488 30:1.05928 31:0.989 32:0.86378 33:0.709711 34:0.926804 35:0.852192 36:1.00102 37:0.999 
-1 1:0.0543956 2:0.4 3:0.356164 4:0.513284 5:0.942605 6:0.279481 7:0.818182 8:0.558648 9:0.416667 10:0.399185 11:0.654618 12:0.325134 13:1.28788 14:0.568404 15:0.454545 16:0.340351 17:0.357895 18:0.377049 19:0.628483 20:0.16 21:0.511789 22:0.783505 23:0.319149 25:0.204082 26:0.75 27:0.06 28:0.497722 29:0.638432 30:0.98434 31:0.976 32:0.892291 34:0.931959 36:0.993909 37:0.999 
-1 1:0.0384615 2:0.266667 3:0.340183 4:0.381509 5:0.145695 6:0.721698 7:0.181818 8:0.238569 9:0.333333 10:0.450102 11:0.168675 12:0.672727 13:0.530303 14:0.214169 15:0.363636 16:0.424561 17:0.618947 18:0.565574 19:0.642931 20:0.28 21:0.323162 22:0.804124 23:2.23404 24:0.983051 25:1.06122 26:0.865 28:0.363038 29:0.571429 30:0.567114 31:0.9 32:0.139388 33:0.0144628 34:0.304124 35:0.195719 36:0.57868 37:1 
-1 1:0.0549451 2:0.266667 3:0.424658 4:0.526036 5:0.12362 6:0.775943 7:0.25 8:0.319284 9:0.25 10:0.342159 11:0.110442 12:0.684492 13:0.340909 14:0.318404 15:0.272727 16:0.385965 18:0.459016 19:0.718266 20:0.4 21:0.393897 22:0.783505 23:2.14894 24:0.989831 25:0.755102 26:0.838 27:0.5 28:0.415696 29:0.436157 30:0.553691 31:0.778 32:0.0865892 34:0.471134 35:0.417941 36:0.677157 37:0.955 
-1 1:0.0879121 2:-0.2 3:0.531963 4:0.501594 5:0.145695 6:0.770047 7:0.227273 8:0.186083 10:0.391039 11:0.124498 12:0.625668 13:0.340909 14:0.183632 16:0.435088 17:0.751579 18:0.47541 19:0.675955 20:0.56 21:0.323994 22:0.773196 23:2.14894 24:0.8 25:0.795918 26:0.744 27:0.04 28:0.347848 29:0.447535 30:0.568233 31:0.689 32:0.195354 33:0.350207 34:0.584536 35:0.509684 36:0.688325 37:0.996 
