svm_type c_svc
kernel_type rbf
gamma 0.0126582
nr_class 2
total_sv 23
rho -0.207642
label 1 -1
nr_sv 16 7
SV
0.1584510572148449 1:0.562189 2:0.0340074 3:0.00395257 4:0.00512821 5:0.397638 6:0.000102997 7:1 8:0.00202437 9:0.399209 10:1.81235e-05 11:0.371542 12:7.72463e-06 13:0.00395257 14:0.0217391 15:0.376238 16:0.833137 17:0.399209 18:2.54313e-06 19:0.00395257 20:0.000151126 21:1 22:0.00328947 23:1 24:1 25:1 26:1 27:1 28:2.40298e-05 29:1 30:0.142857 31:1 32:0.0204082 33:5.17393e-12 34:0.019802 35:0.0178375 36:0.882353 37:0.6 38:0.00395257 39:4.62828e-07 40:0.00395257 41:1.52588e-05 42:0.00497512 43:1.01473e-07 44:0.106299 45:0.586957 46:0.401709 47:0.195728 48:0.00395257 49:0.000480307 50:0.399209 51:0.000400481 52:0.399209 53:0.000400481 54:1 55:2.48305e-06 56:0.00497512 57:2.6261e-06 58:1 59:1 60:0.0102041 61:0.000104091 62:0.00395257 63:0.000151126 64:0.00990099 65:1.13944e-06 66:0.0023753 67:1 68:0.873991 69:0.502488 70:0.0540166 71:0.502488 72:6.86834e-05 73:5.14344e-09 74:2.65637e-09 75:0.00990099 76:5.75069e-09 77:0.00497512 78:1 79:1 
0.2650771305310641 1:0.368159 2:0.0566346 3:0.529644 4:0.548718 5:0.397638 6:0.000102997 7:1 8:0.000187441 9:0.399209 10:1.81235e-05 11:0.399209 12:3.55276e-15 13:0.450593 14:0.934783 15:0.990099 16:0.124849 17:0.399209 18:2.54313e-06 19:0.00395257 20:0.000151126 21:1 22:0.000304581 23:1 24:1 25:1 26:1 27:0.00990099 28:2.40298e-05 29:0.00990099 30:0.142857 31:0.00990099 32:0.0204082 33:5.17393e-12 34:0.00990099 35:1.52588e-05 36:0.0117647 37:0.0222222 38:0.00395257 39:4.62828e-07 40:0.399209 41:0.00244141 42:0.502488 43:1.62357e-05 44:0.948819 45:0.565217 46:0.00854701 47:4.09686e-09 48:0.399209 49:0.000480307 50:0.399209 51:0.000400481 52:0.399209 53:0.000400481 54:1 55:2.48305e-06 56:0.00497512 57:2.6261e-06 58:1 59:1 60:0.0102041 61:0.000104091 62:0.00395257 63:0.000151126 64:0.00990099 65:1.13944e-06 66:0.0023753 67:0.00990099 68:3.55277e-15 69:0.00497512 70:2.30781e-11 71:0.00497512 72:3.09473e-14 73:5.14344e-09 74:2.65637e-09 75:0.00990099 76:5.75069e-09 77:0.00497512 78:1 79:1 
0.2866847130369004 1:0.243781 2:0.588085 3:0.399209 4:0.00512821 5:0.484252 6:0.0589144 7:1 8:0.000749766 9:0.399209 10:1.81235e-05 11:0.399209 12:3.55276e-15 13:0.399209 14:0.0217391 15:0.950495 16:0.607259 17:0.399209 18:2.54313e-06 19:0.00395257 20:0.000151126 21:1 22:0.00121832 23:1 24:1 25:1 26:1 27:0.00990099 28:2.40298e-05 29:0.00990099 30:0.142857 31:0.00990099 32:0.0204082 33:5.17393e-12 34:0.00990099 35:1.52588e-05 36:0.0117647 37:0.0222222 38:0.00395257 39:4.62828e-07 40:0.395257 41:0.0228577 42:0.497512 43:0.000152007 44:0.846457 45:0.630435 46:0.00854701 47:4.09686e-09 48:0.399209 49:0.000480307 50:0.399209 51:0.000400481 52:0.399209 53:0.000400481 54:1 55:0.000238373 56:0.00497512 57:2.6261e-06 58:1 59:1 60:0.0102041 61:0.000104091 62:0.00395257 63:0.000151126 64:0.00990099 65:1.13944e-06 66:0.0023753 67:0.00990099 68:3.55277e-15 69:0.00497512 70:2.30781e-11 71:0.00497512 72:3.09473e-14 73:5.14344e-09 74:2.65637e-09 75:0.00990099 76:5.75069e-09 77:0.00497512 78:1 79:1 
1 1:0.587065 2:0.090005 3:0.00395257 4:0.00512821 5:0.374016 6:0.000102997 7:0.742574 8:1 9:0.399209 10:5.43705e-05 11:0.296443 12:7.6798e-05 13:0.00395257 14:0.0217391 15:0.623762 16:0.49563 17:0.399209 18:0.000368753 19:0.00395257 20:0.000151126 21:1 22:0.0545809 23:1 24:1 25:1 26:1 27:0.00990099 28:2.40298e-05 29:1 30:0.142857 31:1 32:0.0204082 33:6.20872e-11 34:0.574257 35:0.000671387 36:0.882353 37:0.6 38:0.00395257 39:4.62828e-07 40:0.00395257 41:1.52588e-05 42:0.00497512 43:1.01473e-07 44:0.106299 45:0.586957 46:0.316239 47:0.518018 48:0.00395257 49:0.000480307 50:0.399209 51:0.000400481 52:0.399209 53:0.000400481 54:1 55:2.48305e-06 56:0.00497512 57:2.6261e-06 58:1 59:1 60:0.0102041 61:0.000104091 62:0.00395257 63:0.000151126 64:0.00990099 65:1.13944e-06 66:0.0023753 67:0.00990099 68:3.55277e-15 69:0.00497512 70:2.30781e-11 71:0.00497512 72:3.09473e-14 73:5.14344e-09 74:2.65637e-09 75:0.00990099 76:5.75069e-09 77:0.00497512 78:1 79:1 
0.2432608373633221 1:0.288557 2:1.0436e-05 3:0.399209 4:0.00512821 5:0.492126 6:0.0580904 7:1 8:0.000787254 9:0.399209 10:0.000144988 11:0.399209 12:3.55276e-15 13:0.399209 14:0.0217391 15:0.950495 16:0.573241 17:0.399209 18:2.54313e-06 19:0.00395257 20:0.000151126 21:1 22:0.00127924 23:1 24:1 25:1 26:1 27:0.00990099 28:2.40298e-05 29:0.00990099 30:0.142857 31:0.00990099 32:0.0204082 33:5.17393e-12 34:0.00990099 35:1.52588e-05 36:0.0117647 37:0.0222222 38:0.00395257 39:4.62828e-07 40:0.395257 41:0.0211182 42:0.497512 43:0.000140439 44:0.814961 45:0.652174 46:0.00854701 47:4.09686e-09 48:0.399209 49:0.00384246 50:0.399209 51:0.000400481 52:0.399209 53:0.000400481 54:1 55:7.44916e-06 56:0.00497512 57:2.6261e-06 58:1 59:1 60:0.0102041 61:0.000104091 62:0.00395257 63:0.000151126 64:0.00990099 65:1.13944e-06 66:0.0023753 67:0.00990099 68:3.55277e-15 69:0.00497512 70:2.30781e-11 71:0.00497512 72:3.09473e-14 73:5.14344e-09 74:2.65637e-09 75:0.00990099 76:5.75069e-09 77:0.00497512 78:1 79:1 
0.06158636744546766 1:0.587065 2:0.111233 3:0.00395257 4:0.00512821 5:0.374016 6:0.000102997 7:0.742574 8:1 9:0.399209 10:5.43705e-05 11:0.296443 12:7.67985e-05 13:0.00395257 14:0.0217391 15:0.623762 16:0.495988 17:0.399209 18:0.000368753 19:0.00395257 20:0.000151126 21:1 22:0.0545809 23:1 24:1 25:1 26:1 27:0.00990099 28:2.40298e-05 29:1 30:0.142857 31:1 32:0.0204082 33:6.20872e-11 34:0.574257 35:0.000671387 36:0.882353 37:0.6 38:0.00395257 39:4.62828e-07 40:0.00395257 41:1.52588e-05 42:0.00497512 43:1.01473e-07 44:0.106299 45:0.586957 46:0.316239 47:0.640197 48:0.00395257 49:0.000480307 50:0.399209 51:0.000400481 52:0.399209 53:0.000400481 54:1 55:2.48305e-06 56:0.00497512 57:2.6261e-06 58:1 59:1 60:0.0102041 61:0.000104091 62:0.00395257 63:0.000151126 64:0.00990099 65:1.13944e-06 66:0.0023753 67:0.00990099 68:3.55277e-15 69:0.00497512 70:2.30781e-11 71:0.00497512 72:3.09473e-14 73:5.14344e-09 74:2.65637e-09 75:0.00990099 76:5.75069e-09 77:0.00497512 78:1 79:1 
0.05356694469694405 1:0.477612 2:0.000373206 3:0.399209 4:0.00512821 5:0.488189 6:0.0583994 7:1 8:0.0012746 9:0.0474308 10:0.0318249 11:0.399209 12:3.55276e-15 13:0.399209 14:0.0217391 15:0.950495 16:0.601036 17:0.399209 18:2.54313e-06 19:0.00395257 20:0.000151126 21:1 22:0.00207115 23:1 24:1 25:1 26:1 27:0.00990099 28:2.40298e-05 29:0.00990099 30:0.142857 31:0.00990099 32:0.0204082 33:5.17393e-12 34:0.00990099 35:1.52588e-05 36:0.0117647 37:0.0222222 38:0.00395257 39:4.62828e-07 40:0.395257 41:0.0235291 42:0.497512 43:0.000156471 44:0.791339 45:0.673913 46:0.00854701 47:4.09686e-09 48:0.00790514 49:0.965898 50:0.399209 51:0.000400481 52:0.399209 53:0.000400481 54:1 55:2.48305e-06 56:0.00497512 57:2.6261e-06 58:1 59:1 60:0.0102041 61:0.000104091 62:0.00395257 63:0.000151126 64:0.00990099 65:1.13944e-06 66:0.0023753 67:0.00990099 68:3.55277e-15 69:0.00497512 70:2.30781e-11 71:0.00497512 72:3.09473e-14 73:5.14344e-09 74:2.65637e-09 75:0.00990099 76:5.75069e-09 77:0.00497512 78:1 79:1 
1 1:0.432836 2:0.00401192 3:0.399209 4:0.00512821 5:0.488189 6:0.0583994 7:1 8:0.0012746 9:0.0474308 10:0.0318249 11:0.399209 12:3.55276e-15 13:0.399209 14:0.0217391 15:0.950495 16:0.601393 17:0.399209 18:2.54313e-06 19:0.00395257 20:0.000151126 21:1 22:0.00207115 23:1 24:1 25:1 26:1 27:0.00990099 28:2.40298e-05 29:0.00990099 30:0.142857 31:0.00990099 32:0.0204082 33:5.17393e-12 34:0.00990099 35:1.52588e-05 36:0.0117647 37:0.0222222 38:0.00395257 39:4.62828e-07 40:0.395257 41:0.0235443 42:0.497512 43:0.000156573 44:0.76378 45:0.695652 46:0.00854701 47:4.09686e-09 48:0.00790514 49:0.965898 50:0.399209 51:0.000400481 52:0.399209 53:0.000400481 54:1 55:2.48305e-06 56:0.00497512 57:2.6261e-06 58:1 59:1 60:0.0102041 61:0.000104091 62:0.00395257 63:0.000151126 64:0.00990099 65:1.13944e-06 66:0.0023753 67:0.00990099 68:3.55277e-15 69:0.00497512 70:2.30781e-11 71:0.00497512 72:3.09473e-14 73:5.14344e-09 74:2.65637e-09 75:0.00990099 76:5.75069e-09 77:0.00497512 78:1 79:1 
0.1786769009700777 1:0.542289 2:0.0105021 3:0.00395257 4:0.00512821 5:0.385827 6:0.000102997 7:1 8:0.00138707 9:0.241107 10:0.0300125 11:0.347826 12:2.12683e-06 13:0.00395257 14:0.0217391 15:0.475248 16:0.697167 17:0.399209 18:2.54313e-06 19:0.00395257 20:0.000151126 21:1 22:0.00115741 23:1 24:1 25:1 26:1 27:1 28:2.40298e-05 29:1 30:0.142857 31:1 32:0.0204082 33:1.04444 34:1 35:1.52588e-05 36:0.894118 37:0.577778 38:0.00395257 39:4.62828e-07 40:0.00395257 41:1.52588e-05 42:0.00497512 43:1.01473e-07 44:0.102362 45:0.565217 46:0.393162 47:0.060444 48:0.00395257 49:0.000480307 50:0.399209 51:0.000400481 52:0.399209 53:0.000400481 54:1 55:2.48305e-06 56:0.00497512 57:2.6261e-06 58:1 59:1 60:0.0102041 61:0.000104091 62:0.00395257 63:0.000151126 64:0.00990099 65:1.13944e-06 66:0.0023753 67:1 68:0.650675 69:0.502488 70:0.00778971 71:0.502488 72:0.00010175 73:5.14344e-09 74:2.65637e-09 75:0.00990099 76:5.75069e-09 77:0.00497512 78:1 79:1 
0.01805293796026888 1:1 2:7.11824e-10 3:0.00395257 4:0.00512821 5:0.649606 6:0.284169 7:1 8:0.00266167 9:0.794466 10:1.81235e-05 11:0.399209 12:3.55276e-15 13:0.00395257 14:0.0217391 15:0.207921 16:0.870506 17:0.399209 18:2.54313e-06 19:0.399209 20:0.000151126 21:1 22:0.00432505 23:1 24:1 25:1 26:1 27:0.00990099 28:2.40298e-05 29:0.00990099 30:0.142857 31:0.00990099 32:0.0204082 33:5.17393e-12 34:0.00990099 35:1.52588e-05 36:0.0117647 37:0.0222222 38:0.00395257 39:4.62828e-07 40:0.00395257 41:1.52588e-05 42:0.00497512 43:1.01473e-07 44:0.429134 45:0.782609 46:0.00854701 47:4.09686e-09 48:0.794466 49:0.000480307 50:0.794466 51:0.000400481 52:0.794466 53:0.000400481 54:1 55:2.48305e-06 56:1 57:2.6261e-06 58:1 59:1 60:0.0102041 61:0.000104091 62:0.00395257 63:0.000151126 64:0.00990099 65:1.13944e-06 66:0.0023753 67:0.00990099 68:3.55277e-15 69:0.00497512 70:2.30781e-11 71:0.00497512 72:3.09473e-14 73:5.14344e-09 74:2.65637e-09 75:0.00990099 76:5.75069e-09 77:0.00497512 78:1 79:1 
0.4769910122332282 1:1 2:7.11824e-10 3:0.00395257 4:0.00512821 5:0.661417 6:0.272119 7:1 8:0.00528585 9:0.794466 10:1.81235e-05 11:0.794466 12:3.55276e-15 13:0.00395257 14:0.0217391 15:0.0891089 16:1.00143 17:0.399209 18:2.54313e-06 19:0.399209 20:0.000151126 21:1 22:0.00858918 23:1 24:1 25:1 26:1 27:0.00990099 28:2.40298e-05 29:0.00990099 30:0.142857 31:0.00990099 32:0.0204082 33:5.17393e-12 34:0.00990099 35:1.52588e-05 36:0.0117647 37:0.0222222 38:0.00395257 39:4.62828e-07 40:0.00395257 41:1.52588e-05 42:0.00497512 43:1.01473e-07 44:0.468504 45:0.565217 46:0.00854701 47:4.09686e-09 48:0.794466 49:0.000480307 50:0.794466 51:0.000400481 52:0.794466 53:0.000400481 54:1 55:2.48305e-06 56:1 57:2.6261e-06 58:1 59:1 60:0.0102041 61:0.000104091 62:0.00395257 63:0.000151126 64:0.00990099 65:1.13944e-06 66:0.0023753 67:0.00990099 68:3.55277e-15 69:0.00497512 70:2.30781e-11 71:0.00497512 72:3.09473e-14 73:5.14344e-09 74:2.65637e-09 75:0.00990099 76:5.75069e-09 77:0.00497512 78:1 79:1 
0.4221762258956407 1:0.502488 2:7.11824e-10 3:0.399209 4:0.00512821 5:0.397638 6:0.552271 7:1 8:0.000149953 9:0.399209 10:1.81235e-05 11:0.399209 12:3.55276e-15 13:0.399209 14:0.0217391 15:0.811881 16:0.116944 17:0.399209 18:2.54313e-06 19:0.00395257 20:0.000151126 21:1 22:0.000243665 23:1 24:1 25:1 26:1 27:0.00990099 28:2.40298e-05 29:0.00990099 30:0.142857 31:0.00990099 32:0.0204082 33:5.17393e-12 34:0.00990099 35:1.52588e-05 36:0.0117647 37:0.0222222 38:0.399209 39:6.06305e-05 40:0.399209 41:1.52588e-05 42:0.502488 43:2.51653e-05 44:0.397638 45:0.326087 46:0.00854701 47:4.09686e-09 48:0.399209 49:0.000480307 50:0.399209 51:0.000400481 52:0.399209 53:0.000400481 54:1 55:2.48305e-06 56:0.00497512 57:2.6261e-06 58:1 59:1 60:0.836735 61:0.811492 62:0.399209 63:0.000151126 64:0.00990099 65:1.13944e-06 66:0.916865 67:1 68:3.55277e-15 69:0.00497512 70:2.30781e-11 71:0.00497512 72:3.09473e-14 73:5.14344e-09 74:2.65637e-09 75:0.00990099 76:5.75069e-09 77:0.00497512 78:1 79:1 
0.0967639344634402 1:0.502488 2:7.11824e-10 3:0.525692 4:0.579487 5:0.397638 6:0.000102997 7:1 8:7.49766e-05 9:0.399209 10:1.81235e-05 11:0.399209 12:3.55276e-15 13:0.509881 14:0.413043 15:1 16:0.0487725 17:0.399209 18:2.54313e-06 19:0.00395257 20:0.000151126 21:1 22:0.000121832 23:1 24:1 25:1 26:1 27:0.00990099 28:2.40298e-05 29:0.00990099 30:0.142857 31:0.00990099 32:0.0204082 33:5.17393e-12 34:0.00990099 35:1.52588e-05 36:0.0117647 37:0.0222222 38:0.00395257 39:4.62828e-07 40:0.399209 41:0.0075531 42:0.502488 43:5.02292e-05 44:0.677165 45:0.782609 46:0.00854701 47:4.09686e-09 48:0.399209 49:0.000480307 50:0.399209 51:0.000400481 52:0.399209 53:0.000400481 54:1 55:2.48305e-06 56:0.00497512 57:2.6261e-06 58:1 59:1 60:0.0102041 61:0.000104091 62:0.00395257 63:0.000151126 64:0.00990099 65:1.13944e-06 66:0.0023753 67:0.00990099 68:3.55277e-15 69:0.00497512 70:2.30781e-11 71:0.00497512 72:3.09473e-14 73:5.14344e-09 74:2.65637e-09 75:0.00990099 76:5.75069e-09 77:0.00497512 78:1 79:1 
0.7459306071748912 1:0.502488 2:7.11824e-10 3:0.399209 4:0.00512821 5:0.397638 6:0.547739 7:1 8:0.000149953 9:0.399209 10:1.81235e-05 11:0.399209 12:3.55276e-15 13:0.399209 14:0.0217391 15:0.811881 16:0.116587 17:0.399209 18:2.54313e-06 19:0.00395257 20:0.000151126 21:1 22:0.000243665 23:1 24:1 25:1 26:1 27:0.00990099 28:2.40298e-05 29:0.00990099 30:0.142857 31:0.00990099 32:0.0204082 33:5.17393e-12 34:0.00990099 35:1.52588e-05 36:0.0117647 37:0.0222222 38:0.399209 39:1.38849e-06 40:0.399209 41:1.52588e-05 42:0.502488 43:2.01931e-05 44:0.397638 45:0.347826 46:0.00854701 47:4.09686e-09 48:0.399209 49:0.000480307 50:0.399209 51:0.000400481 52:0.399209 53:0.000400481 54:1 55:2.48305e-06 56:0.00497512 57:2.6261e-06 58:1 59:1 60:0.836735 61:0.810451 62:0.399209 63:0.000151126 64:0.00990099 65:1.13944e-06 66:0.662708 67:1 68:3.55277e-15 69:0.00497512 70:2.30781e-11 71:0.00497512 72:3.09473e-14 73:5.14344e-09 74:2.65637e-09 75:0.00990099 76:5.75069e-09 77:0.00497512 78:1 79:1 
0.5928936019779418 1:0.502488 2:7.11824e-10 3:0.533597 4:0.517949 5:0.397638 6:0.000102997 7:1 8:0.000149953 9:0.399209 10:1.81235e-05 11:0.399209 12:3.55276e-15 13:0.458498 14:0.913043 15:0.980198 16:0.209918 17:0.399209 18:2.54313e-06 19:0.00395257 20:0.000151126 21:1 22:0.000243665 23:1 24:1 25:1 26:1 27:0.00990099 28:2.40298e-05 29:0.00990099 30:0.142857 31:0.00990099 32:0.0204082 33:5.17393e-12 34:0.00990099 35:1.52588e-05 36:0.0117647 37:0.0222222 38:0.00395257 39:4.62828e-07 40:0.185771 41:1 42:0.114428 43:0.00959134 44:1 45:0.521739 46:0.00854701 47:4.09686e-09 48:0.399209 49:0.000480307 50:0.399209 51:0.000400481 52:0.399209 53:0.000400481 54:1 55:2.48305e-06 56:0.00497512 57:2.6261e-06 58:1 59:1 60:0.0102041 61:0.000104091 62:0.00395257 63:0.000151126 64:0.00990099 65:1.13944e-06 66:0.0023753 67:0.00990099 68:3.55277e-15 69:0.00497512 70:2.30781e-11 71:0.00497512 72:3.09473e-14 73:5.14344e-09 74:2.65637e-09 75:0.00990099 76:5.75069e-09 77:0.00497512 78:1 79:1 
0.5203933465415109 1:0.597015 2:0.152844 3:0.00395257 4:0.00512821 5:0.374016 6:0.000102997 7:0.742574 8:1 9:0.399209 10:5.43705e-05 11:0.296443 12:7.67997e-05 13:0.00395257 14:0.0217391 15:0.623762 16:0.496702 17:0.399209 18:0.000368753 19:0.00395257 20:0.000151126 21:1 22:0.0545809 23:1 24:1 25:1 26:1 27:0.00990099 28:2.40298e-05 29:1 30:0.142857 31:1 32:0.0204082 33:6.20872e-11 34:0.574257 35:0.000671387 36:0.905882 37:0.555556 38:0.00395257 39:4.62828e-07 40:0.00395257 41:1.52588e-05 42:0.00497512 43:1.01473e-07 44:0.0984252 45:0.543478 46:0.316239 47:0.879686 48:0.00395257 49:0.000480307 50:0.399209 51:0.000400481 52:0.399209 53:0.000400481 54:1 55:2.48305e-06 56:0.00497512 57:2.6261e-06 58:1 59:1 60:0.0102041 61:0.000104091 62:0.00395257 63:0.000151126 64:0.00990099 65:1.13944e-06 66:0.0023753 67:0.00990099 68:3.55277e-15 69:0.00497512 70:2.30781e-11 71:0.00497512 72:3.09473e-14 73:5.14344e-09 74:2.65637e-09 75:0.00990099 76:5.75069e-09 77:0.00497512 78:1 79:1 
-0.1231212587308037 
-1 
-1 
-1 
-1 
-1 
-0.9973843587747392 
