svm_type c_svc
kernel_type rbf
gamma 0.333333
nr_class 2
total_sv 322
rho -3.56157
label 1 -1
nr_sv 161 161
SV
1 1:0.672048 2:0.089052 3:0.764109 
1 1:0.745426 2:0.0557211 3:0.60217 
1 1:0.735468 2:0.0800347 3:0.449983 
1 1:0.74973 2:0.210324 3:0.379908 
1 1:0.73233 2:0.273249 3:0.645087 
1 1:0.590868 2:0.268965 3:0.7839 
1 1:0.593559 2:0.194214 3:0.74084 
1 1:0.704612 2:0.10324 3:0.68628 
1 1:0.684966 2:0.124893 3:0.647362 
1 1:0.652402 2:0.199202 3:0.648438 
1 1:0.675186 2:0.234675 3:0.531692 
1 1:0.542697 2:0.356204 3:0.816797 
1 1:0.768028 2:0.223479 3:0.559904 
1 1:0.672317 2:0.162471 3:0.6594 
1 1:0.391459 2:0.500684 3:0.790719 
1 1:0.567904 2:0.343568 3:0.86788 
1 1:0.750719 2:0.16772 3:0.484617 
1 1:0.598761 2:0.229206 3:0.755282 
1 1:0.298709 2:0.552118 3:0.852368 
1 1:0.579655 2:0.290952 3:0.894888 
1 1:0.722012 2:0.127334 3:0.533832 
1 1:0.756904 2:0.143294 3:0.376702 
1 1:0.625313 2:0.205816 3:0.72466 
1 1:0.321849 2:0.469052 3:0.823215 
1 1:0.311354 2:0.470238 3:0.836053 
1 1:0.595622 2:0.218195 3:0.836855 
1 1:0.725242 2:0.0718712 3:0.453861 
1 1:0.739144 2:0.186565 3:0.453861 
1 1:0.537764 2:0.31301 3:0.833245 
1 1:0.196087 2:0.614674 3:0.727467 
1 1:0.294668 2:0.465727 3:0.765847 
1 1:0.575349 2:0.211617 3:0.828297 
1 1:0.744437 2:0.0357329 3:0.338056 
1 1:0.586472 2:0.287442 3:0.731747 
1 1:0.299875 2:0.494991 3:0.714764 
1 1:0.149443 2:0.605696 3:0.560576 
1 1:0.404377 2:0.322804 3:0.830704 
1 1:0.640383 2:0.131474 3:0.789249 
1 1:0.765878 2:0.0230198 3:0.324684 
1 1:0.616971 2:0.328048 3:0.73188 
1 1:0.350108 2:0.482097 3:0.818134 
1 1:0.304179 2:0.445036 3:0.722252 
1 1:0.604592 2:0.151242 3:0.829768 
1 1:0.776191 2:0.0241281 3:0.510429 
1 1:0.813242 2:0.00476525 3:0.118215 
1 1:0.705236 2:0.261205 3:0.665015 
1 1:0.523142 2:0.291689 3:0.813052 
1 1:0.513991 2:0.22019 3:0.766783 
1 1:0.687567 2:0.0823289 3:0.71035 
1 1:0.756458 2:0.051068 3:0.564992 
1 1:0.744528 2:0.0765632 3:0.411336 
1 1:0.761391 2:0.198722 3:0.346877 
1 1:0.751885 2:0.262573 3:0.624497 
1 1:0.610243 2:0.255219 3:0.748596 
1 1:0.604413 2:0.183533 3:0.693367 
1 1:0.718783 2:0.0913419 3:0.654715 
1 1:0.697073 2:0.118058 3:0.629709 
1 1:0.667652 2:0.188708 3:0.6261 
1 1:0.679226 2:0.234933 3:0.526749 
1 1:0.55992 2:0.344125 3:0.783766 
1 1:0.77359 2:0.21668 3:0.560441 
1 1:0.677072 2:0.168349 3:0.6364 
1 1:0.399531 2:0.50519 3:0.773335 
1 1:0.566379 2:0.336103 3:0.853437 
1 1:0.753228 2:0.165801 3:0.479808 
1 1:0.602708 2:0.225548 3:0.742578 
1 1:0.301128 2:0.551786 3:0.840199 
1 1:0.58719 2:0.29106 3:0.903989 
1 1:0.728021 2:0.122823 3:0.528486 
1 1:0.749102 2:0.149948 3:0.381118 
1 1:0.621277 2:0.21025 3:0.710484 
1 1:0.323912 2:0.47057 3:0.799412 
1 1:0.330011 2:0.468646 3:0.829367 
1 1:0.600735 2:0.216273 3:0.826425 
1 1:0.738247 2:0.0682876 3:0.438483 
1 1:0.731879 2:0.190999 3:0.465226 
1 1:0.534981 2:0.318073 3:0.82268 
1 1:0.205147 2:0.60906 3:0.689222 
1 1:0.29808 2:0.468353 3:0.730409 
1 1:0.582795 2:0.20844 3:0.80329 
1 1:0.759237 2:0.031041 3:0.33939 
0.9901076254645864 1:0.81019 2:0.205668 3:0.228932 
1 1:0.57813 2:0.299857 3:0.734689 
1 1:0.277897 2:0.525549 3:0.710083 
1 1:0.143613 2:0.61379 3:0.536904 
1 1:0.402583 2:0.321803 3:0.83164 
1 1:0.640472 2:0.128886 3:0.778551 
1 1:0.765878 2:0.0191774 3:0.330165 
1 1:0.612486 2:0.341054 3:0.740037 
1 1:0.349389 2:0.483611 3:0.826692 
1 1:0.310638 2:0.434983 3:0.735758 
1 1:0.60217 2:0.154342 3:0.840733 
1 1:0.773681 2:0.0214674 3:0.508961 
1 1:0.808846 2:0.00484288 3:0.134658 
1 1:0.710711 2:0.254 3:0.659266 
1 1:0.527447 2:0.285743 3:0.796203 
1 1:0.504931 2:0.222407 3:0.759294 
1 1:0.682634 2:0.0816993 3:0.711688 
1 1:0.755023 2:0.0511758 3:0.573286 
1 1:0.747038 2:0.078521 3:0.424708 
1 1:0.756636 2:0.201013 3:0.364137 
1 1:0.740133 2:0.272732 3:0.629844 
1 1:0.607014 2:0.257621 3:0.744718 
1 1:0.602439 2:0.181761 3:0.690023 
1 1:0.713941 2:0.0922303 3:0.643484 
1 1:0.692409 2:0.115362 3:0.647228 
1 1:0.659398 2:0.191479 3:0.646163 
1 1:0.679582 2:0.225363 3:0.519654 
1 1:0.555614 2:0.343642 3:0.761969 
1 1:0.772155 2:0.213871 3:0.553357 
1 1:0.672854 2:0.163062 3:0.632522 
1 1:0.40563 2:0.484904 3:0.764777 
1 1:0.57517 2:0.340429 3:0.834716 
1 1:0.741658 2:0.168867 3:0.57676 
1 1:0.583602 2:0.234785 3:0.825354 
0.4656407421640915 1:0.279778 2:0.567492 3:0.906264 
1 1:0.580193 2:0.296752 3:0.976731 
1 1:0.719229 2:0.122271 3:0.584113 
1 1:0.729729 2:0.147731 3:0.486096 
1 1:0.595084 2:0.218786 3:0.803424 
1 1:0.304088 2:0.478772 3:0.843676 
1 1:0.318892 2:0.4685 3:0.885932 
1 1:0.589522 2:0.222001 3:0.905323 
1 1:0.724076 2:0.0739412 3:0.502673 
1 1:0.712952 2:0.190629 3:0.569004 
1 1:0.519735 2:0.318961 3:0.907598 
1 1:0.282739 2:0.486237 3:0.817331 
1 1:0.574452 2:0.209474 3:0.903451 
1 1:0.74318 2:0.0328867 3:0.3969 
1 1:0.792967 2:0.201825 3:0.338325 
1 1:0.583512 2:0.282155 3:0.821878 
1 1:0.283007 2:0.509515 3:0.76598 
1 1:0.125939 2:0.636254 3:0.633194 
1 1:0.401326 2:0.318293 3:0.928591 
1 1:0.634732 2:0.127109 3:0.864403 
1 1:0.761842 2:0.0149642 3:0.391543 
1 1:0.592751 2:0.348187 3:0.8295 
1 1:0.344633 2:0.480027 3:0.904516 
1 1:0.306061 2:0.441896 3:0.813186 
1 1:0.607283 2:0.145881 3:0.916285 
1 1:0.774578 2:0.0197337 3:0.560845 
1 1:0.808304 2:-0.00106949 3:0.171701 
1 1:0.69869 2:0.249603 3:0.737631 
1 1:0.503587 2:0.300556 3:0.872426 
1 1:0.501524 2:0.222777 3:0.837524 
1 1:0.679495 2:0.0841013 3:0.785906 
1 1:0.745694 2:0.0530603 3:0.631716 
1 1:0.736725 2:0.0789652 3:0.484886 
1 1:0.742556 2:0.195839 3:0.414811 
1 1:0.723807 2:0.26442 3:0.711554 
1 1:0.580103 2:0.267191 3:0.823616 
1 1:0.588805 2:0.187821 3:0.779487 
1 1:0.705058 2:0.1001 3:0.714897 
1 1:0.681017 2:0.120386 3:0.695908 
1 1:0.643164 2:0.196172 3:0.692431 
1 1:0.666126 2:0.228837 3:0.605644 
1 1:0.535341 2:0.352991 3:0.847554 
1 1:0.759328 2:0.209548 3:0.645222 
1 1:0.655545 2:0.164356 3:0.721316 
1 1:0.385629 2:0.506225 3:0.814523 
1 1:0.568532 2:0.342645 3:0.902779 
-0.4557483676286779 1:0.553708 2:0.183766 3:0.67576 
-1 1:0.553708 2:0.183766 3:0.67576 
-1 1:0.553708 2:0.183766 3:0.67576 
-1 1:0.553708 2:0.183766 3:0.67576 
-1 1:0.553708 2:0.183766 3:0.67576 
-1 1:0.553708 2:0.183766 3:0.67576 
-1 1:0.553708 2:0.183766 3:0.67576 
-1 1:0.553708 2:0.183766 3:0.67576 
-1 1:0.553708 2:0.183766 3:0.67576 
-1 1:0.553708 2:0.183766 3:0.67576 
-1 1:0.553708 2:0.183766 3:0.67576 
-1 1:0.553708 2:0.183766 3:0.67576 
-1 1:0.553708 2:0.183766 3:0.67576 
-1 1:0.553708 2:0.183766 3:0.67576 
-1 1:0.553708 2:0.183766 3:0.67576 
-1 1:0.553708 2:0.183766 3:0.67576 
-1 1:0.553708 2:0.183766 3:0.67576 
-1 1:0.553708 2:0.183766 3:0.67576 
-1 1:0.553708 2:0.183766 3:0.67576 
-1 1:0.553708 2:0.183766 3:0.67576 
-1 1:0.553708 2:0.183766 3:0.67576 
-1 1:0.553708 2:0.183766 3:0.67576 
-1 1:0.553708 2:0.183766 3:0.67576 
-1 1:0.553708 2:0.183766 3:0.67576 
-1 1:0.553708 2:0.183766 3:0.67576 
-1 1:0.553708 2:0.183766 3:0.67576 
-1 1:0.553708 2:0.183766 3:0.67576 
-1 1:0.553708 2:0.183766 3:0.67576 
-1 1:0.553708 2:0.183766 3:0.67576 
-1 1:0.553708 2:0.183766 3:0.67576 
-1 1:0.553708 2:0.183766 3:0.67576 
-1 1:0.553708 2:0.183766 3:0.67576 
-1 1:0.553708 2:0.183766 3:0.67576 
-1 1:0.553708 2:0.183766 3:0.67576 
-1 1:0.553708 2:0.183766 3:0.67576 
-1 1:0.553708 2:0.183766 3:0.67576 
-1 1:0.553708 2:0.183766 3:0.67576 
-1 1:0.553708 2:0.183766 3:0.67576 
-1 1:0.553708 2:0.183766 3:0.67576 
-1 1:0.553708 2:0.183766 3:0.67576 
-1 1:0.553708 2:0.183766 3:0.67576 
-1 1:0.553708 2:0.183766 3:0.67576 
-1 1:0.553708 2:0.183766 3:0.67576 
-1 1:0.553708 2:0.183766 3:0.67576 
-1 1:0.553708 2:0.183766 3:0.67576 
-1 1:0.553708 2:0.183766 3:0.67576 
-1 1:0.553708 2:0.183766 3:0.67576 
-1 1:0.553708 2:0.183766 3:0.67576 
-1 1:0.553708 2:0.183766 3:0.67576 
-1 1:0.553708 2:0.183766 3:0.67576 
-1 1:0.553708 2:0.183766 3:0.67576 
-1 1:0.553708 2:0.183766 3:0.67576 
-1 1:0.553708 2:0.183766 3:0.67576 
-1 1:0.553708 2:0.183766 3:0.67576 
-1 1:0.553708 2:0.183766 3:0.67576 
-1 1:0.553708 2:0.183766 3:0.67576 
-1 1:0.553708 2:0.183766 3:0.67576 
-1 1:0.553708 2:0.183766 3:0.67576 
-1 1:0.553708 2:0.183766 3:0.67576 
-1 1:0.553708 2:0.183766 3:0.67576 
-1 1:0.553708 2:0.183766 3:0.67576 
-1 1:0.553708 2:0.183766 3:0.67576 
-1 1:0.553708 2:0.183766 3:0.67576 
-1 1:0.553708 2:0.183766 3:0.67576 
-1 1:0.553708 2:0.183766 3:0.67576 
-1 1:0.553708 2:0.183766 3:0.67576 
-1 1:0.553708 2:0.183766 3:0.67576 
-1 1:0.553708 2:0.183766 3:0.67576 
-1 1:0.553708 2:0.183766 3:0.67576 
-1 1:0.553708 2:0.183766 3:0.67576 
-1 1:0.553708 2:0.183766 3:0.67576 
-1 1:0.553708 2:0.183766 3:0.67576 
-1 1:0.553708 2:0.183766 3:0.67576 
-1 1:0.553708 2:0.183766 3:0.67576 
-1 1:0.553708 2:0.183766 3:0.67576 
-1 1:0.553708 2:0.183766 3:0.67576 
-1 1:0.553708 2:0.183766 3:0.67576 
-1 1:0.553708 2:0.183766 3:0.67576 
-1 1:0.553708 2:0.183766 3:0.67576 
-1 1:0.553708 2:0.183766 3:0.67576 
-1 1:0.553708 2:0.183766 3:0.67576 
-1 1:0.553708 2:0.183766 3:0.67576 
-1 1:0.553708 2:0.183766 3:0.67576 
-1 1:0.553708 2:0.183766 3:0.67576 
-1 1:0.553708 2:0.183766 3:0.67576 
-1 1:0.553708 2:0.183766 3:0.67576 
-1 1:0.553708 2:0.183766 3:0.67576 
-1 1:0.553708 2:0.183766 3:0.67576 
-1 1:0.553708 2:0.183766 3:0.67576 
-1 1:0.553708 2:0.183766 3:0.67576 
-1 1:0.553708 2:0.183766 3:0.67576 
-1 1:0.553708 2:0.183766 3:0.67576 
-1 1:0.553708 2:0.183766 3:0.67576 
-1 1:0.553708 2:0.183766 3:0.67576 
-1 1:0.553708 2:0.183766 3:0.67576 
-1 1:0.553708 2:0.183766 3:0.67576 
-1 1:0.553708 2:0.183766 3:0.67576 
-1 1:0.553708 2:0.183766 3:0.67576 
-1 1:0.553708 2:0.183766 3:0.67576 
-1 1:0.553708 2:0.183766 3:0.67576 
-1 1:0.553708 2:0.183766 3:0.67576 
-1 1:0.553708 2:0.183766 3:0.67576 
-1 1:0.553708 2:0.183766 3:0.67576 
-1 1:0.553708 2:0.183766 3:0.67576 
-1 1:0.553708 2:0.183766 3:0.67576 
-1 1:0.553708 2:0.183766 3:0.67576 
-1 1:0.553708 2:0.183766 3:0.67576 
-1 1:0.553708 2:0.183766 3:0.67576 
-1 1:0.553708 2:0.183766 3:0.67576 
-1 1:0.553708 2:0.183766 3:0.67576 
-1 1:0.553708 2:0.183766 3:0.67576 
-1 1:0.553708 2:0.183766 3:0.67576 
-1 1:0.553708 2:0.183766 3:0.67576 
-1 1:0.553708 2:0.183766 3:0.67576 
-1 1:0.553708 2:0.183766 3:0.67576 
-1 1:0.553708 2:0.183766 3:0.67576 
-1 1:0.553708 2:0.183766 3:0.67576 
-1 1:0.553708 2:0.183766 3:0.67576 
-1 1:0.553708 2:0.183766 3:0.67576 
-1 1:0.553708 2:0.183766 3:0.67576 
-1 1:0.553708 2:0.183766 3:0.67576 
-1 1:0.553708 2:0.183766 3:0.67576 
-1 1:0.553708 2:0.183766 3:0.67576 
-1 1:0.553708 2:0.183766 3:0.67576 
-1 1:0.553708 2:0.183766 3:0.67576 
-1 1:0.553708 2:0.183766 3:0.67576 
-1 1:0.553708 2:0.183766 3:0.67576 
-1 1:0.553708 2:0.183766 3:0.67576 
-1 1:0.553708 2:0.183766 3:0.67576 
-1 1:0.553708 2:0.183766 3:0.67576 
-1 1:0.553708 2:0.183766 3:0.67576 
-1 1:0.553708 2:0.183766 3:0.67576 
-1 1:0.553708 2:0.183766 3:0.67576 
-1 1:0.553708 2:0.183766 3:0.67576 
-1 1:0.553708 2:0.183766 3:0.67576 
-1 1:0.553708 2:0.183766 3:0.67576 
-1 1:0.553708 2:0.183766 3:0.67576 
-1 1:0.553708 2:0.183766 3:0.67576 
-1 1:0.553708 2:0.183766 3:0.67576 
-1 1:0.553708 2:0.183766 3:0.67576 
-1 1:0.553708 2:0.183766 3:0.67576 
-1 1:0.553708 2:0.183766 3:0.67576 
-1 1:0.553708 2:0.183766 3:0.67576 
-1 1:0.553708 2:0.183766 3:0.67576 
-1 1:0.553708 2:0.183766 3:0.67576 
-1 1:0.553708 2:0.183766 3:0.67576 
-1 1:0.553708 2:0.183766 3:0.67576 
-1 1:0.553708 2:0.183766 3:0.67576 
-1 1:0.553708 2:0.183766 3:0.67576 
-1 1:0.553708 2:0.183766 3:0.67576 
-1 1:0.553708 2:0.183766 3:0.67576 
-1 1:0.553708 2:0.183766 3:0.67576 
-1 1:0.553708 2:0.183766 3:0.67576 
-1 1:0.553708 2:0.183766 3:0.67576 
-1 1:0.553708 2:0.183766 3:0.67576 
-1 1:0.553708 2:0.183766 3:0.67576 
-1 1:0.553708 2:0.183766 3:0.67576 
-1 1:0.553708 2:0.183766 3:0.67576 
-1 1:0.553708 2:0.183766 3:0.67576 
-1 1:0.553708 2:0.183766 3:0.67576 
-1 1:0.553708 2:0.183766 3:0.67576 
